FANN_FLO_2.1
num_layers=5
learning_rate=0.700000
connection_rate=1.000000
network_type=0
learning_momentum=0.000000
training_algorithm=2
train_error_function=0
train_stop_function=0
cascade_output_change_fraction=0.010000
quickprop_decay=-0.000100
quickprop_mu=1.750000
rprop_increase_factor=1.200000
rprop_decrease_factor=0.500000
rprop_delta_min=0.000000
rprop_delta_max=50.000000
rprop_delta_zero=0.100000
cascade_output_stagnation_epochs=12
cascade_candidate_change_fraction=0.010000
cascade_candidate_stagnation_epochs=12
cascade_max_out_epochs=150
cascade_min_out_epochs=50
cascade_max_cand_epochs=150
cascade_min_cand_epochs=50
cascade_num_candidate_groups=2
bit_fail_limit=3.49999994039535520000e-001
cascade_candidate_limit=1.00000000000000000000e+003
cascade_weight_multiplier=4.00000005960464480000e-001
cascade_activation_functions_count=10
cascade_activation_functions=3 5 7 8 10 11 14 15 16 17 
cascade_activation_steepnesses_count=4
cascade_activation_steepnesses=2.50000000000000000000e-001 5.00000000000000000000e-001 7.50000000000000000000e-001 1.00000000000000000000e+000 
layer_sizes=17 14 11 8 5 
scale_included=0
neurons (num_inputs, activation_function, activation_steepness)=(0, 0, 0.00000000000000000000e+000) (0, 0, 0.00000000000000000000e+000) (0, 0, 0.00000000000000000000e+000) (0, 0, 0.00000000000000000000e+000) (0, 0, 0.00000000000000000000e+000) (0, 0, 0.00000000000000000000e+000) (0, 0, 0.00000000000000000000e+000) (0, 0, 0.00000000000000000000e+000) (0, 0, 0.00000000000000000000e+000) (0, 0, 0.00000000000000000000e+000) (0, 0, 0.00000000000000000000e+000) (0, 0, 0.00000000000000000000e+000) (0, 0, 0.00000000000000000000e+000) (0, 0, 0.00000000000000000000e+000) (0, 0, 0.00000000000000000000e+000) (0, 0, 0.00000000000000000000e+000) (0, 0, 0.00000000000000000000e+000) (17, 8, 5.00000000000000000000e-001) (17, 8, 5.00000000000000000000e-001) (17, 8, 5.00000000000000000000e-001) (17, 8, 5.00000000000000000000e-001) (17, 8, 5.00000000000000000000e-001) (17, 8, 5.00000000000000000000e-001) (17, 8, 5.00000000000000000000e-001) (17, 8, 5.00000000000000000000e-001) (17, 8, 5.00000000000000000000e-001) (17, 8, 5.00000000000000000000e-001) (17, 8, 5.00000000000000000000e-001) (17, 8, 5.00000000000000000000e-001) (17, 8, 5.00000000000000000000e-001) (0, 8, 5.00000000000000000000e-001) (14, 8, 5.00000000000000000000e-001) (14, 8, 5.00000000000000000000e-001) (14, 8, 5.00000000000000000000e-001) (14, 8, 5.00000000000000000000e-001) (14, 8, 5.00000000000000000000e-001) (14, 8, 5.00000000000000000000e-001) (14, 8, 5.00000000000000000000e-001) (14, 8, 5.00000000000000000000e-001) (14, 8, 5.00000000000000000000e-001) (14, 8, 5.00000000000000000000e-001) (0, 8, 5.00000000000000000000e-001) (11, 8, 5.00000000000000000000e-001) (11, 8, 5.00000000000000000000e-001) (11, 8, 5.00000000000000000000e-001) (11, 8, 5.00000000000000000000e-001) (11, 8, 5.00000000000000000000e-001) (11, 8, 5.00000000000000000000e-001) (11, 8, 5.00000000000000000000e-001) (0, 8, 5.00000000000000000000e-001) (8, 6, 5.00000000000000000000e-001) (8, 6, 5.00000000000000000000e-001) (8, 6, 5.00000000000000000000e-001) (8, 6, 5.00000000000000000000e-001) (0, 6, 5.00000000000000000000e-001) 
connections (connected_to_neuron, weight)=(0, 1.81679320335388180000e+000) (1, 1.38249373435974120000e+000) (2, -1.69018197059631350000e+000) (3, -7.83795714378356930000e-001) (4, -4.49266076087951660000e-001) (5, 2.06072196364402770000e-001) (6, 1.71566024422645570000e-001) (7, 4.03681069612503050000e-001) (8, -9.27500665187835690000e-001) (9, 5.10028153657913210000e-002) (10, 1.29272544384002690000e+000) (11, 1.24604010581970210000e+000) (12, -4.12295967340469360000e-001) (13, 6.91846787929534910000e-001) (14, 3.92077773809432980000e-001) (15, -9.49297547340393070000e-001) (16, 1.02449369430541990000e+000) (0, 3.46788859367370610000e+000) (1, -4.95033711194992070000e-001) (2, 6.59904301166534420000e-001) (3, -1.89416360855102540000e+000) (4, 2.37295150756835940000e+000) (5, -8.01601186394691470000e-002) (6, -1.86309552192687990000e+000) (7, 1.51800882816314700000e+000) (8, 1.38164627552032470000e+000) (9, 5.96829831600189210000e-001) (10, 7.96312987804412840000e-002) (11, -7.64444470405578610000e-001) (12, 1.70282602310180660000e+000) (13, -2.81390428543090820000e+000) (14, 9.00690376758575440000e-001) (15, 4.27714958786964420000e-002) (16, 8.47179889678955080000e-001) (0, -6.75504589080810550000e+000) (1, 1.29418396949768070000e+000) (2, 5.13826274871826170000e+000) (3, -1.71350753307342530000e+000) (4, 9.92147997021675110000e-002) (5, -1.37423074245452880000e+000) (6, 2.97794729704037310000e-004) (7, 2.16490507125854490000e+000) (8, -1.60225141048431400000e+000) (9, 1.03315317630767820000e+000) (10, 1.15103948116302490000e+000) (11, 4.45376008749008180000e-001) (12, 1.03246271610260010000e+000) (13, -1.82610440254211430000e+000) (14, 2.18382012099027630000e-003) (15, 2.60958003997802730000e+000) (16, 4.04767543077468870000e-001) (0, 1.01252591609954830000e+000) (1, 5.26935756206512450000e-001) (2, -7.87676453590393070000e-001) (3, -5.34076511859893800000e-001) (4, -8.78785610198974610000e-001) (5, 2.69087880849838260000e-001) (6, 3.23760211467742920000e-001) (7, 1.39031565189361570000e+000) (8, 3.34428167343139650000e+000) (9, -2.57203722000122070000e+000) (10, -1.34072199463844300000e-001) (11, 1.32966089248657230000e+000) (12, -2.53582262992858890000e+000) (13, 3.89655143022537230000e-001) (14, 3.02650594711303710000e+000) (15, -1.04615092277526860000e-001) (16, 9.14041519165039060000e-001) (0, -3.18128854036331180000e-001) (1, 5.19699096679687500000e-001) (2, 3.92734594643116000000e-002) (3, 1.24934375286102290000e+000) (4, -2.00668358802795410000e+000) (5, -3.10157209634780880000e-001) (6, 3.12935143709182740000e-001) (7, -1.97819948196411130000e+000) (8, 1.49547576904296880000e-001) (9, 1.23472332954406740000e-001) (10, 2.14340016245841980000e-001) (11, 1.19949102401733400000e+000) (12, -1.53607535362243650000e+000) (13, 9.25297915935516360000e-001) (14, 1.03338146209716800000e+000) (15, 1.87521696090698240000e+000) (16, 1.51512479782104490000e+000) (0, -1.19657397270202640000e+000) (1, 1.25182139873504640000e+000) (2, 1.78047931194305420000e+000) (3, -7.76398956775665280000e-001) (4, -3.78124117851257320000e-001) (5, 3.34864854812622070000e+000) (6, -9.87011730670928960000e-001) (7, -1.04414963722229000000e+000) (8, 3.97380805015563960000e+000) (9, -1.37282097339630130000e+000) (10, 1.51227581501007080000e+000) (11, -1.56090831756591800000e+000) (12, -4.99590682983398440000e+000) (13, 4.14803552627563480000e+000) (14, 6.47736310958862300000e+000) (15, -4.59488105773925780000e+000) (16, -1.88574403524398800000e-001) (0, 5.42471647262573240000e-001) (1, 4.39546436071395870000e-001) (2, 1.73106086254119870000e+000) (3, -2.45716691017150880000e+000) (4, -6.01248681545257570000e-001) (5, 7.48602569103240970000e-001) (6, 1.09732556343078610000e+000) (7, -1.10979825258255000000e-001) (8, -2.28618383407592770000e-001) (9, -4.60904449224472050000e-001) (10, 2.18303060531616210000e+000) (11, -8.81787121295928960000e-001) (12, 1.51308739185333250000e+000) (13, -3.97785037755966190000e-001) (14, 4.40631926059722900000e-001) (15, -1.77452957630157470000e+000) (16, 1.18691575527191160000e+000) (0, -1.26807332038879390000e+000) (1, 1.33707892894744870000e+000) (2, 8.60927760601043700000e-001) (3, -2.20328629016876220000e-001) (4, -1.05786693096160890000e+000) (5, 4.88685131072998050000e-001) (6, 9.30432260036468510000e-001) (7, -3.48974704742431640000e-001) (8, 2.63091325759887700000e+000) (9, -1.22907054424285890000e+000) (10, -4.57146018743515010000e-001) (11, -4.71075505018234250000e-001) (12, -2.07482188940048220000e-001) (13, 2.08700075745582580000e-001) (14, -6.54645636677742000000e-002) (15, -2.74404615163803100000e-001) (16, 8.54588150978088380000e-001) (0, -1.75949609279632570000e+000) (1, 2.13251733779907230000e+000) (2, -2.84338772296905520000e-001) (3, 2.64478921890258790000e+000) (4, 2.94691061973571780000e+000) (5, 1.42416250705718990000e+000) (6, -3.72502356767654420000e-001) (7, -1.53523790836334230000e+000) (8, 3.72468084096908570000e-001) (9, -2.04704642295837400000e+000) (10, -2.70575976371765140000e+000) (11, -2.39387488365173340000e+000) (12, 1.44638907909393310000e+000) (13, -1.38090312480926510000e+000) (14, -9.41417336463928220000e-001) (15, -1.21757328510284420000e+000) (16, 7.97810077667236330000e-001) (0, 2.68781399726867680000e+000) (1, 4.22081232070922850000e+000) (2, -1.24323260784149170000e+000) (3, -1.32878994941711430000e+000) (4, 3.79484742879867550000e-001) (5, 1.00339829921722410000e+000) (6, 8.91546830534935000000e-002) (7, -4.08417642116546630000e-001) (8, 2.56620955467224120000e+000) (9, 2.27574668824672700000e-002) (10, 6.24384284019470210000e-001) (11, 1.18079590797424320000e+000) (12, -1.49069845676422120000e+000) (13, 5.41115283966064450000e-001) (14, -3.12058120965957640000e-001) (15, -1.53914511203765870000e-001) (16, 9.84768033027648930000e-001) (0, 1.93408739566802980000e+000) (1, 7.77528107166290280000e-001) (2, -5.17270565032958980000e-001) (3, 1.65938723087310790000e+000) (4, 2.13386225700378420000e+000) (5, -8.01705121994018550000e-001) (6, 1.93417757749557500000e-001) (7, -1.40743017196655270000e+000) (8, 1.88465619087219240000e+000) (9, 2.41897299885749820000e-001) (10, 1.83877062797546390000e+000) (11, 9.79818582534790040000e-001) (12, -2.84830856323242190000e+000) (13, 1.49022209644317630000e+000) (14, 1.61125802993774410000e+000) (15, 6.08564317226409910000e-001) (16, 1.02192318439483640000e+000) (0, -7.57911491394042970000e+000) (1, -1.40892550349235530000e-001) (2, 6.28725004196166990000e+000) (3, 1.02062201499938960000e+000) (4, 1.01207485198974610000e+001) (5, 4.13012027740478520000e+000) (6, 5.06988096237182620000e+000) (7, -9.57518666982650760000e-002) (8, 5.45564746856689450000e+000) (9, 2.60640645027160640000e+000) (10, 3.49699378013610840000e-001) (11, -2.91190481185913090000e+000) (12, -2.80658874511718750000e+001) (13, 6.03986144065856930000e-001) (14, -4.39928099513053890000e-002) (15, 1.91984856128692630000e+000) (16, -1.70574948191642760000e-001) (0, -8.81334424018859860000e-001) (1, -9.52728614211082460000e-002) (2, 1.25761485099792480000e+000) (3, 1.20200622081756590000e+000) (4, -4.38754200935363770000e-001) (5, 2.45617672801017760000e-001) (6, 1.43991172313690190000e+000) (7, -1.14472556114196780000e+000) (8, 1.18066799640655520000e+000) (9, 9.31641638278961180000e-001) (10, 3.64166945219039920000e-001) (11, -9.44778978824615480000e-001) (12, -2.64580100774765010000e-001) (13, 4.64927226305007930000e-001) (14, -1.16794407367706300000e-001) (15, 6.61245584487915040000e-001) (16, -4.49205785989761350000e-001) (17, 5.49457848072052000000e-001) (18, 1.10529613494873050000e+000) (19, 4.87992107868194580000e-001) (20, 7.89229571819305420000e-002) (21, 6.89363062381744380000e-001) (22, 2.74789363145828250000e-001) (23, -6.57419906929135320000e-003) (24, 3.76292616128921510000e-001) (25, 2.82709449529647830000e-001) (26, -5.99543094635009770000e-001) (27, -7.65363797545433040000e-002) (28, -6.81879222393035890000e-001) (29, 5.52108943462371830000e-001) (30, 4.48144674301147460000e-001) (17, -1.01093828678131100000e-001) (18, 3.00998747348785400000e-001) (19, 2.15271115303039550000e-001) (20, 3.86482656002044680000e-001) (21, 4.04029846191406250000e-001) (22, 1.10238678753376010000e-001) (23, 1.86822578310966490000e-001) (24, 5.39480969309806820000e-002) (25, 3.77829551696777340000e-001) (26, 6.18842840194702150000e-001) (27, -1.08469771221280100000e-002) (28, 1.99742898344993590000e-001) (29, 8.33079099655151370000e-001) (30, 2.98641800880432130000e-001) (17, -1.32098782062530520000e+000) (18, 3.22676211595535280000e-001) (19, -6.01531118154525760000e-002) (20, 1.30005824565887450000e+000) (21, -3.14034080505371090000e+000) (22, -1.06080673635005950000e-001) (23, -4.83620524406433110000e-001) (24, -2.42317512631416320000e-001) (25, 2.64363765716552730000e-001) (26, -7.09175169467926030000e-001) (27, 1.95011603832244870000e+000) (28, 5.90426206588745120000e-001) (29, -3.53236384689807890000e-002) (30, -1.39939099550247190000e-001) (17, 1.45571601390838620000e+000) (18, -2.07243442535400390000e-001) (19, 4.54860292375087740000e-002) (20, -1.76900637149810790000e+000) (21, 2.83064579963684080000e+000) (22, 9.32284414768218990000e-001) (23, 6.47038793563842770000e+000) (24, 2.31760835647583010000e+000) (25, 1.21724772453308110000e+000) (26, 3.76556444168090820000e+000) (27, -1.53870320320129390000e+000) (28, 1.01706814765930180000e+000) (29, 2.20904305577278140000e-001) (30, 3.55232357978820800000e-001) (17, 3.91842395067214970000e-001) (18, 1.26000344753265380000e-001) (19, -1.00843138992786410000e-001) (20, -5.39130389690399170000e-001) (21, 3.12102973461151120000e-001) (22, 3.83694827556610110000e-001) (23, -2.80169025063514710000e-002) (24, 4.44567292928695680000e-001) (25, -1.47563263773918150000e-001) (26, -7.94149935245513920000e-001) (27, 5.21368309855461120000e-002) (28, 1.41960695385932920000e-001) (29, 4.03342127799987790000e-001) (30, 3.26791584491729740000e-001) (17, -1.59435063600540160000e-001) (18, 3.69398623704910280000e-001) (19, 1.71466216444969180000e-001) (20, 1.86174154281616210000e-001) (21, -2.84372627735137940000e-001) (22, 3.27975004911422730000e-001) (23, -2.39756435155868530000e-001) (24, 6.15253031253814700000e-001) (25, -8.05993497371673580000e-001) (26, 1.09865617752075200000e+000) (27, 4.18407768011093140000e-001) (28, 9.44539308547973630000e-001) (29, 4.43203121423721310000e-001) (30, 3.00575524568557740000e-001) (17, 2.20137283205986020000e-001) (18, 8.67140442132949830000e-002) (19, 4.86958324909210210000e-001) (20, 3.38062500953674320000e+000) (21, -1.11957183107733730000e-002) (22, 6.02916479110717770000e-001) (23, -8.66428241133689880000e-002) (24, 2.54150062799453740000e-001) (25, 1.54553025960922240000e-001) (26, 1.45193445682525630000e+000) (27, 1.65731191635131840000e-001) (28, -2.43983411788940430000e+000) (29, 1.90184056758880620000e-001) (30, 2.75702744722366330000e-001) (17, -4.23597306013107300000e-001) (18, -1.23367182910442350000e-001) (19, -2.35373988747596740000e-001) (20, -3.14802378416061400000e-001) (21, -4.06071722507476810000e-001) (22, -1.31358072161674500000e-001) (23, -3.87527197599411010000e-001) (24, -2.57774353027343750000e-001) (25, -3.53321641683578490000e-001) (26, -1.03980086743831630000e-001) (27, 1.73193722963333130000e-001) (28, 2.37938806414604190000e-001) (29, -8.45070853829383850000e-002) (30, -6.90239891409873960000e-002) (17, 5.60192108154296880000e-001) (18, 5.96909523010253910000e-001) (19, 3.02029758691787720000e-001) (20, 4.29859399795532230000e-001) (21, 1.42514094710350040000e-001) (22, 2.02755574136972430000e-002) (23, 3.98251116275787350000e-001) (24, 8.87690544128417970000e-001) (25, 5.75492918491363530000e-001) (26, -8.78909453749656680000e-002) (27, 5.04257202148437500000e-001) (28, 4.85515072941780090000e-002) (29, 1.30505099892616270000e-001) (30, 2.02126830816268920000e-001) (17, 9.58510875701904300000e-001) (18, -3.91918987035751340000e-001) (19, 1.14140093326568600000e+000) (20, -1.67223453521728520000e-001) (21, -1.10067285597324370000e-001) (22, -9.62287366390228270000e-001) (23, -1.54267990589141850000e+000) (24, 5.35774528980255130000e-001) (25, 4.38333094120025630000e-001) (26, 2.87698835134506230000e-001) (27, -1.06168121099472050000e-001) (28, -1.77781447768211360000e-001) (29, 5.99169552326202390000e-001) (30, 2.34563454985618590000e-001) (31, 1.45654118061065670000e+000) (32, 3.49101257324218750000e+000) (33, 7.86241388320922850000e+000) (34, 1.09365510940551760000e+000) (35, 1.08787072822451590000e-002) (36, 2.31385397911071780000e+000) (37, 2.06587619781494140000e+001) (38, 3.14186668395996090000e+001) (39, 9.95163345336914060000e+000) (40, 1.12181341648101810000e+000) (41, 2.92761623859405520000e-001) (31, 1.27849802374839780000e-001) (32, -3.09568792581558230000e-001) (33, 3.61311107873916630000e-001) (34, 8.16280782222747800000e-001) (35, 8.90628933906555180000e-001) (36, 9.60000097751617430000e-001) (37, -2.19241306185722350000e-001) (38, -6.18781268596649170000e-001) (39, 1.70900940895080570000e-001) (40, 5.57259082794189450000e-001) (41, 1.21445667743682860000e+000) (31, -5.32742917537689210000e-001) (32, 5.63623476028442380000e+000) (33, 1.12228803634643550000e+001) (34, 5.02308130264282230000e-001) (35, -6.24020481109619140000e+000) (36, -1.70177383422851560000e+001) (37, 3.29487466812133790000e+000) (38, 2.43667745590209960000e+000) (39, 8.44887614250183110000e-001) (40, 3.90938401222229000000e+000) (41, -1.01814327239990230000e+001) (31, -5.07423691451549530000e-002) (32, 1.48726952075958250000e+000) (33, 7.05945611000061040000e-001) (34, 2.35381388664245610000e+000) (35, -7.06228561401367190000e+001) (36, -4.00282651185989380000e-001) (37, -2.70612096786499020000e+000) (38, 9.52894091606140140000e-001) (39, -1.87966942787170410000e+000) (40, -1.51309922337532040000e-001) (41, 1.07169136404991150000e-001) (31, 1.39848649501800540000e+000) (32, -7.73933827877044680000e-001) (33, 2.75668203830718990000e-001) (34, 1.63788461685180660000e+000) (35, 1.33052945137023930000e-001) (36, 1.44963070750236510000e-001) (37, 2.36832797527313230000e-001) (38, 1.01956892013549800000e+000) (39, 9.48015451431274410000e-001) (40, -7.23457410931587220000e-002) (41, 4.32543307542800900000e-002) (31, 2.40835517644882200000e-001) (32, -1.34335935115814210000e+000) (33, -2.09182679653167720000e-001) (34, 1.15534365177154540000e+000) (35, 6.09269618988037110000e-001) (36, -2.26576641201972960000e-001) (37, 4.73816469311714170000e-002) (38, 6.95873320102691650000e-001) (39, 2.22415876388549800000e+000) (40, 8.25470089912414550000e-001) (41, 4.98952955007553100000e-001) (31, 8.36673915386199950000e-001) (32, 5.51198244094848630000e-001) (33, -3.75338234007358550000e-002) (34, 1.43041920661926270000e+000) (35, 2.17188075184822080000e-001) (36, -2.90254920721054080000e-001) (37, 2.65578180551528930000e-001) (38, 2.11155608296394350000e-001) (39, 2.33290657401084900000e-001) (40, 1.26767203211784360000e-001) (41, 1.00085169076919560000e-001) (42, -1.42364725470542910000e-001) (43, 4.05932962894439700000e-001) (44, -7.73231685161590580000e-002) (45, 9.13782119750976560000e-001) (46, -4.06700730323791500000e-001) (47, -3.85839104652404790000e-001) (48, -1.48109003901481630000e-001) (49, 5.22782146930694580000e-001) (42, -2.66298890113830570000e-001) (43, 6.22413337230682370000e-001) (44, -1.48037344217300420000e-001) (45, 1.10983335971832280000e+000) (46, -5.34813344478607180000e-001) (47, -7.30997264385223390000e-001) (48, -3.03217372857034210000e-003) (49, 8.62680435180664060000e-001) (42, -3.71644854545593260000e-001) (43, 5.88597714900970460000e-001) (44, -1.37247160077095030000e-001) (45, 7.52515971660614010000e-001) (46, -7.99512043595314030000e-002) (47, -5.10311722755432130000e-001) (48, -5.54192364215850830000e-001) (49, 9.73048899322748180000e-003) (42, -4.96195554733276370000e-001) (43, 8.78380656242370610000e-001) (44, -2.24916383624076840000e-001) (45, 1.20116233825683590000e+000) (46, -2.77971327304840090000e-001) (47, -9.10866260528564450000e-001) (48, -4.77758437395095830000e-001) (49, 5.17129778861999510000e-001) 
