FANN_FLO_2.1
num_layers=5
learning_rate=0.700000
connection_rate=1.000000
network_type=0
learning_momentum=0.000000
training_algorithm=2
train_error_function=0
train_stop_function=0
cascade_output_change_fraction=0.010000
quickprop_decay=-0.000100
quickprop_mu=1.750000
rprop_increase_factor=1.200000
rprop_decrease_factor=0.500000
rprop_delta_min=0.000000
rprop_delta_max=50.000000
rprop_delta_zero=0.100000
cascade_output_stagnation_epochs=12
cascade_candidate_change_fraction=0.010000
cascade_candidate_stagnation_epochs=12
cascade_max_out_epochs=150
cascade_min_out_epochs=50
cascade_max_cand_epochs=150
cascade_min_cand_epochs=50
cascade_num_candidate_groups=2
bit_fail_limit=3.49999994039535520000e-001
cascade_candidate_limit=1.00000000000000000000e+003
cascade_weight_multiplier=4.00000005960464480000e-001
cascade_activation_functions_count=10
cascade_activation_functions=3 5 7 8 10 11 14 15 16 17 
cascade_activation_steepnesses_count=4
cascade_activation_steepnesses=2.50000000000000000000e-001 5.00000000000000000000e-001 7.50000000000000000000e-001 1.00000000000000000000e+000 
layer_sizes=17 14 11 8 5 
scale_included=0
neurons (num_inputs, activation_function, activation_steepness)=(0, 0, 0.00000000000000000000e+000) (0, 0, 0.00000000000000000000e+000) (0, 0, 0.00000000000000000000e+000) (0, 0, 0.00000000000000000000e+000) (0, 0, 0.00000000000000000000e+000) (0, 0, 0.00000000000000000000e+000) (0, 0, 0.00000000000000000000e+000) (0, 0, 0.00000000000000000000e+000) (0, 0, 0.00000000000000000000e+000) (0, 0, 0.00000000000000000000e+000) (0, 0, 0.00000000000000000000e+000) (0, 0, 0.00000000000000000000e+000) (0, 0, 0.00000000000000000000e+000) (0, 0, 0.00000000000000000000e+000) (0, 0, 0.00000000000000000000e+000) (0, 0, 0.00000000000000000000e+000) (0, 0, 0.00000000000000000000e+000) (17, 8, 5.00000000000000000000e-001) (17, 8, 5.00000000000000000000e-001) (17, 8, 5.00000000000000000000e-001) (17, 8, 5.00000000000000000000e-001) (17, 8, 5.00000000000000000000e-001) (17, 8, 5.00000000000000000000e-001) (17, 8, 5.00000000000000000000e-001) (17, 8, 5.00000000000000000000e-001) (17, 8, 5.00000000000000000000e-001) (17, 8, 5.00000000000000000000e-001) (17, 8, 5.00000000000000000000e-001) (17, 8, 5.00000000000000000000e-001) (17, 8, 5.00000000000000000000e-001) (0, 8, 5.00000000000000000000e-001) (14, 8, 5.00000000000000000000e-001) (14, 8, 5.00000000000000000000e-001) (14, 8, 5.00000000000000000000e-001) (14, 8, 5.00000000000000000000e-001) (14, 8, 5.00000000000000000000e-001) (14, 8, 5.00000000000000000000e-001) (14, 8, 5.00000000000000000000e-001) (14, 8, 5.00000000000000000000e-001) (14, 8, 5.00000000000000000000e-001) (14, 8, 5.00000000000000000000e-001) (0, 8, 5.00000000000000000000e-001) (11, 8, 5.00000000000000000000e-001) (11, 8, 5.00000000000000000000e-001) (11, 8, 5.00000000000000000000e-001) (11, 8, 5.00000000000000000000e-001) (11, 8, 5.00000000000000000000e-001) (11, 8, 5.00000000000000000000e-001) (11, 8, 5.00000000000000000000e-001) (0, 8, 5.00000000000000000000e-001) (8, 6, 5.00000000000000000000e-001) (8, 6, 5.00000000000000000000e-001) (8, 6, 5.00000000000000000000e-001) (8, 6, 5.00000000000000000000e-001) (0, 6, 5.00000000000000000000e-001) 
connections (connected_to_neuron, weight)=(0, -1.75249326229095460000e+000) (1, -8.83716702461242680000e-001) (2, 3.40303134918212890000e+000) (3, -3.10224264860153200000e-001) (4, -1.43613183498382570000e+000) (5, 1.56695199012756350000e+000) (6, 6.88443705439567570000e-002) (7, -1.09567856788635250000e+000) (8, 1.91669166088104250000e+000) (9, -2.26715469360351560000e+000) (10, -2.90994495153427120000e-001) (11, 5.74897706508636470000e-001) (12, -6.50395452976226810000e-001) (13, 1.89859819412231450000e+000) (14, 1.30322659015655520000e+000) (15, -1.28820586204528810000e+000) (16, 1.05779564380645750000e+000) (0, -2.44380701333284380000e-002) (1, 1.80234670639038090000e+000) (2, -1.23920726776123050000e+000) (3, 1.64730858802795410000e+000) (4, -3.08333992958068850000e+000) (5, 9.24808438867330550000e-004) (6, 5.89081764221191410000e+000) (7, -5.90283584594726560000e+000) (8, -7.35458552837371830000e-001) (9, -4.05120086669921870000e+000) (10, 1.19204211235046390000e+000) (11, 4.78236341476440430000e+000) (12, -1.80466309189796450000e-001) (13, 1.39901414513587950000e-001) (14, -4.84891124069690700000e-002) (15, 3.72032809257507320000e+000) (16, 4.60110038518905640000e-001) (0, 2.67168331146240230000e+000) (1, 8.19551086425781250000e+000) (2, -1.72986817359924320000e+000) (3, 1.53879535198211670000e+000) (4, -5.81979036331176760000e+000) (5, -2.00711250305175780000e-001) (6, 1.91943740844726560000e+000) (7, 3.42014169692993160000e+000) (8, 3.61597776412963870000e+000) (9, -7.36712962388992310000e-002) (10, -9.41525936126708980000e-001) (11, -8.19436359405517580000e+000) (12, 1.04999220371246340000e+000) (13, 1.57332301139831540000e+000) (14, -1.46642863750457760000e+000) (15, -4.61199855804443360000e+000) (16, -2.24570631980896000000e-001) (0, -5.95010137557983400000e+000) (1, -1.35224638506770130000e-003) (2, -2.45990324020385740000e+000) (3, 6.83348035812377930000e+000) (4, 2.51414942741394040000e+000) (5, -4.81214570999145510000e+000) (6, 6.34474849700927730000e+000) (7, -4.98775863647460940000e+000) (8, -7.16409730911254880000e+000) (9, 3.36893647909164430000e-001) (10, 1.08246529102325440000e+000) (11, 2.61578726768493650000e+000) (12, -3.61558008193969730000e+000) (13, 3.08450651168823240000e+000) (14, 2.04154276847839360000e+000) (15, 8.36022734642028810000e-001) (16, 1.27032077312469480000e+000) (0, -8.01123905181884770000e+000) (1, 6.60221290588378910000e+000) (2, 9.07412147521972660000e+000) (3, -1.37464284896850590000e-001) (4, -1.19964551925659180000e+001) (5, -1.30614852905273440000e+000) (6, -2.39816904067993160000e+000) (7, 1.53989052772521970000e+000) (8, -9.57970333099365230000e+000) (9, -5.78130245208740230000e-001) (10, 7.82142400741577150000e+000) (11, -4.05483990907669070000e-001) (12, -2.05942516326904300000e+001) (13, 7.20704364776611330000e+000) (14, -5.12234258651733400000e+000) (15, -8.84922683238983150000e-001) (16, 1.51693296432495120000e+000) (0, 1.05995476245880130000e+000) (1, -1.73185455799102780000e+000) (2, -1.80507689714431760000e-001) (3, -3.15114212036132810000e+000) (4, 4.61871087551116940000e-001) (5, -1.79495847225189210000e+000) (6, 5.14050865173339840000e+000) (7, 1.91050633788108830000e-001) (8, 4.59477567672729490000e+000) (9, 2.10022425651550290000e+000) (10, -1.94696795940399170000e+000) (11, -8.98304283618927000000e-001) (12, 6.41707372665405270000e+000) (13, -4.31678962707519530000e+000) (14, 6.20484709739685060000e-001) (15, 1.58071875572204590000e+000) (16, 2.95259412378072740000e-002) (0, -7.19413995742797850000e+000) (1, 7.85014057159423830000e+000) (2, 6.51063776016235350000e+000) (3, 8.32653641700744630000e-001) (4, -3.60732197761535640000e+000) (5, 1.75764441490173340000e+000) (6, 7.11562919616699220000e+000) (7, 2.10529112815856930000e+000) (8, 2.36818847656250000000e+001) (9, -1.77155380249023440000e+001) (10, 9.51118755340576170000e+000) (11, 3.08371329307556150000e+000) (12, -1.26807661056518550000e+001) (13, 1.25964994430541990000e+001) (14, -7.99840879440307620000e+000) (15, -5.68156051635742190000e+000) (16, -7.97493457794189450000e-001) (0, -4.02545005083084110000e-001) (1, 3.59998524188995360000e-001) (2, 3.26845258474349980000e-001) (3, 2.14294290542602540000e+000) (4, -2.47836112976074220000e+000) (5, -2.64038145542144780000e-002) (6, -1.86006724834442140000e+000) (7, 9.81485784053802490000e-001) (8, 2.07715320587158200000e+000) (9, -1.03300511837005620000e+000) (10, 1.14451968669891360000e+000) (11, 8.81548374891281130000e-002) (12, -2.96476864814758300000e+000) (13, 5.98238408565521240000e-001) (14, 8.47821295261383060000e-001) (15, 3.19770050048828120000e+000) (16, 7.58026719093322750000e-001) (0, -2.46497726440429690000e+000) (1, 1.00867569446563720000e+000) (2, 1.91798806190490720000e+000) (3, -9.96621251106262210000e-001) (4, 2.15645289421081540000e+000) (5, 6.19306182488799100000e-003) (6, 1.62741136550903320000e+000) (7, -2.28126573562622070000e+000) (8, 1.36422586441040040000e+000) (9, -3.37905973196029660000e-001) (10, 7.35948383808135990000e-001) (11, 1.01411807537078860000e+000) (12, -8.90972137451171880000e-001) (13, 1.50339686870574950000e+000) (14, -6.53485596179962160000e-001) (15, -1.16390001773834230000e+000) (16, 1.38414549827575680000e+000) (0, 1.36326417922973630000e+001) (1, -1.52323997020721440000e+000) (2, 6.14795088768005370000e-001) (3, -2.75725221633911130000e+000) (4, 2.39608020782470700000e+001) (5, 1.10193252563476560000e+001) (6, -1.33373537063598630000e+001) (7, -1.69044339656829830000e+000) (8, -1.18952500820159910000e+000) (9, -4.47741365432739260000e+000) (10, 5.05515766143798830000e+000) (11, -1.01378583908081050000e+000) (12, -3.43376731872558590000e+000) (13, 3.23239469528198240000e+000) (14, 1.61401450634002690000e+000) (15, -2.23692846298217770000e+000) (16, -2.26759687066078190000e-002) (0, 7.43448078632354740000e-001) (1, -3.53031873703002930000e-001) (2, -7.91445672512054440000e-001) (3, -3.04479777812957760000e-001) (4, 2.91474795341491700000e+000) (5, -5.06658554077148440000e-001) (6, 3.28752309083938600000e-001) (7, 2.23885083198547360000e+000) (8, -7.98381492495536800000e-002) (9, 4.67507332563400270000e-001) (10, 3.88792127370834350000e-001) (11, 1.70015263557434080000e+000) (12, -7.42137655615806580000e-002) (13, 1.88240185379981990000e-001) (14, 1.24774247407913210000e-001) (15, -1.00554168224334720000e+000) (16, 1.05758821964263920000e+000) (0, -7.55637049674987790000e-001) (1, -1.28940784931182860000e+000) (2, 2.47623276710510250000e+000) (3, -1.59339714050292970000e+000) (4, 8.93979907035827640000e-001) (5, 1.49555373191833500000e+000) (6, -1.03219377994537350000e+000) (7, 4.00712680816650390000e+000) (8, -1.08623743057250980000e+000) (9, 2.31777882575988770000e+000) (10, 1.47243225574493410000e+000) (11, -9.17371153831481930000e-001) (12, -3.45256114006042480000e+000) (13, -2.84002375602722170000e+000) (14, 9.43903982639312740000e-001) (15, 4.56837987899780270000e+000) (16, -4.80932265520095830000e-001) (0, -1.68497061729431150000e+000) (1, -3.18219399452209470000e+000) (2, -5.10638284683227540000e+000) (3, 3.97585201263427730000e+000) (4, -5.81066071987152100000e-001) (5, 1.12527631223201750000e-001) (6, 1.66721272468566890000e+000) (7, -7.11570903658866880000e-002) (8, -1.04204726219177250000e+000) (9, 1.60316395759582520000e+000) (10, 9.82147502899169920000e+000) (11, -7.92650318145751950000e+000) (12, -6.20473861694335940000e+000) (13, 4.66228342056274410000e+000) (14, 1.21451747417449950000e+000) (15, -2.81433773040771480000e+000) (16, 7.51267075538635250000e-001) (17, -2.39517390727996830000e-001) (18, 7.41325736045837400000e-001) (19, 8.62701356410980220000e-001) (20, 9.18902814388275150000e-001) (21, 7.58403241634368900000e-001) (22, 1.78542643785476680000e-001) (23, 1.12431287765502930000e+000) (24, 6.83826804161071780000e-001) (25, 1.60675525665283200000e+000) (26, 7.22719728946685790000e-001) (27, 6.89466118812561040000e-001) (28, 5.77185451984405520000e-001) (29, 5.42235553264617920000e-001) (30, 8.78084361553192140000e-001) (17, -7.83575996756553650000e-002) (18, 7.54084885120391850000e-001) (19, 4.52225983142852780000e-001) (20, 1.06504090130329130000e-001) (21, 4.40828949213027950000e-001) (22, 3.78466159105300900000e-001) (23, 4.22859162092208860000e-001) (24, 3.63793998956680300000e-001) (25, 9.40095841884613040000e-001) (26, 4.77231442928314210000e-001) (27, 9.47634652256965640000e-002) (28, 2.63248711824417110000e-001) (29, 2.74409234523773190000e-001) (30, 6.49970889091491700000e-001) (17, -2.20335841178894040000e-001) (18, 7.89834260940551760000e-001) (19, 1.51466473937034610000e-001) (20, 3.02279442548751830000e-001) (21, 2.44271218776702880000e-001) (22, 1.77048906683921810000e-001) (23, -3.13202202320098880000e-001) (24, 9.03535664081573490000e-001) (25, 4.78493928909301760000e-001) (26, 7.11966514587402340000e-001) (27, 9.23088341951370240000e-002) (28, 8.41655910015106200000e-001) (29, 5.99518835544586180000e-001) (30, -3.77365857362747190000e-001) (17, 3.26288533210754390000e+000) (18, 1.46008992195129390000e+000) (19, 2.86688590049743650000e+000) (20, 8.15981090068817140000e-001) (21, -1.76386773586273190000e-001) (22, 1.23754310607910160000e+000) (23, -8.69757235050201420000e-001) (24, 5.75207829475402830000e-001) (25, 2.39075827598571780000e+000) (26, 1.74674725532531740000e+000) (27, 1.61747944355010990000e+000) (28, 2.00593233108520510000e+000) (29, 5.50442636013031010000e-001) (30, 9.70637857913970950000e-001) (17, 1.86667788028717040000e+000) (18, -3.01829755306243900000e-001) (19, 3.56334567070007320000e-001) (20, -8.10702264308929440000e-001) (21, 4.97433096170425420000e-001) (22, -4.49040889739990230000e-001) (23, -8.79905149340629580000e-002) (24, 6.63178443908691410000e-001) (25, 1.23711816966533660000e-001) (26, -1.40020102262496950000e-001) (27, 1.29587399959564210000e+000) (28, 7.34147131443023680000e-002) (29, 4.93901610374450680000e-001) (30, -1.70589089393615720000e+000) (17, -4.05471175909042360000e-002) (18, -1.14396199584007260000e-001) (19, 3.77352684736251830000e-001) (20, -2.23203331232070920000e-001) (21, -1.25045788288116460000e+000) (22, 9.70763087272644040000e-001) (23, 2.29063677787780760000e+000) (24, 4.49588615447282790000e-003) (25, -2.62632697820663450000e-001) (26, -3.20187747478485110000e-001) (27, 9.43215072154998780000e-001) (28, 7.70528137683868410000e-001) (29, 5.36161899566650390000e-001) (30, 3.08119952678680420000e-001) (17, 4.12332594394683840000e-001) (18, 4.47633057832717900000e-001) (19, -5.12042284011840820000e-001) (20, 3.30183118581771850000e-001) (21, 7.60155975818634030000e-001) (22, 9.54859852790832520000e-002) (23, 1.76460397243499760000e+000) (24, 4.81008887290954590000e-001) (25, 7.37759530544281010000e-001) (26, -1.93968951702117920000e-001) (27, 1.03452801704406740000e+000) (28, 3.36669236421585080000e-001) (29, -2.62784987688064580000e-001) (30, -3.92315506935119630000e-001) (17, 1.13218903541564940000e+000) (18, -7.35153406858444210000e-002) (19, -1.20894670486450200000e-001) (20, 7.11565390229225160000e-002) (21, -9.49841141700744630000e-002) (22, 1.28374719619750980000e+000) (23, 7.81071841716766360000e-001) (24, -1.29044377803802490000e+000) (25, 1.44776189327239990000e+000) (26, -5.82679986953735350000e-001) (27, 3.44999998807907100000e-001) (28, -8.90034139156341550000e-001) (29, -1.52048063278198240000e+000) (30, 4.02572065591812130000e-001) (17, 8.01827430725097660000e-001) (18, 6.74821913242340090000e-001) (19, -2.02721267938613890000e-001) (20, 9.19743716716766360000e-001) (21, -4.29254733026027680000e-002) (22, -3.07498067617416380000e-001) (23, 3.03586751222610470000e-001) (24, 7.33925774693489070000e-002) (25, 2.14193359017372130000e-001) (26, 6.35174989700317380000e-001) (27, 4.19992893934249880000e-001) (28, 1.89115963876247410000e-002) (29, 6.19055092334747310000e-001) (30, -3.36850702762603760000e-001) (17, 2.90260106325149540000e-001) (18, -6.04143962264060970000e-002) (19, 9.25708353519439700000e-001) (20, -2.24811777472496030000e-001) (21, 9.81671035289764400000e-001) (22, 3.06659284979105000000e-002) (23, 1.47011727094650270000e-002) (24, -6.85993582010269170000e-002) (25, 1.54406026005744930000e-001) (26, 3.13517183065414430000e-001) (27, 6.53624117374420170000e-001) (28, 1.52952030301094060000e-001) (29, 2.39933311939239500000e-001) (30, 8.12969326972961430000e-001) (31, -5.80258369445800780000e-001) (32, -5.12643814086914060000e-001) (33, 1.70033693313598630000e-001) (34, -2.75016069412231450000e+000) (35, 4.50247153639793400000e-002) (36, -3.90936851501464840000e-001) (37, 3.20825994014739990000e-001) (38, -3.18670660257339480000e-001) (39, -6.43240213394165040000e-001) (40, -2.83415615558624270000e-001) (41, -4.46577250957489010000e-001) (31, 1.31443512439727780000e+000) (32, -2.25974011421203610000e+000) (33, -2.90038287639617920000e-001) (34, 1.44762361049652100000e+000) (35, 1.69859480857849120000e+000) (36, 7.73141235113143920000e-002) (37, 1.10926970839500430000e-001) (38, 1.66711497306823730000e+000) (39, 1.39359295368194580000e+000) (40, 9.82561886310577390000e-001) (41, 2.36153101921081540000e+000) (31, 1.76739573478698730000e-001) (32, -5.52394056320190430000e+000) (33, -1.14056568145751950000e+001) (34, -9.37706604599952700000e-003) (35, -6.26798644661903380000e-002) (36, -7.38169431686401370000e+000) (37, -3.61413717269897460000e+000) (38, -1.12522449493408200000e+001) (39, -4.94632673263549800000e+000) (40, -4.86257171630859370000e+000) (41, -8.19740831851959230000e-001) (31, 3.12079906463623050000e-001) (32, -3.39671313762664790000e-001) (33, 1.27511358261108400000e+000) (34, 1.55183815956115720000e+000) (35, 3.97518515586853030000e-001) (36, 6.20828807353973390000e-001) (37, 7.28243365883827210000e-002) (38, -8.19156408309936520000e-001) (39, -7.84268736839294430000e-001) (40, -3.28985452651977540000e-002) (41, -1.04900330305099490000e-001) (31, 5.66193222999572750000e-001) (32, 4.57900613546371460000e-001) (33, 1.40550378710031510000e-002) (34, 1.80412149429321290000e+000) (35, -4.10547137260437010000e-001) (36, -8.44322085380554200000e-001) (37, -2.26259291172027590000e-001) (38, -9.69194531440734860000e-001) (39, -1.16139841079711910000e+000) (40, 2.60715544223785400000e-001) (41, -4.65087532997131350000e-001) (31, -5.52832603454589840000e-001) (32, 5.91759979724884030000e-001) (33, -1.43633484840393070000e-001) (34, -4.81913119554519650000e-001) (35, -8.32355469465255740000e-002) (36, -3.23050647974014280000e-001) (37, -3.34157496690750120000e-002) (38, -4.18678671121597290000e-001) (39, -4.97603625059127810000e-001) (40, -3.72940689325332640000e-001) (41, -9.20906305313110350000e-001) (31, 6.56979143619537350000e-001) (32, 1.16092312335968020000e+000) (33, -3.54978352785110470000e-001) (34, 1.44568085670471190000e+000) (35, -1.59450852870941160000e+000) (36, -5.42588233947753910000e-002) (37, -5.78852236270904540000e-001) (38, -2.33202025294303890000e-001) (39, 3.46010886132717130000e-002) (40, 1.62920385599136350000e-001) (41, 1.22217774391174320000e+000) (42, 1.49630987644195560000e+000) (43, 6.02444946765899660000e-001) (44, 2.70719528198242190000e-001) (45, -3.34395945072174070000e-001) (46, 2.94349640607833860000e-001) (47, 9.96773838996887210000e-001) (48, -7.58855998516082760000e-001) (49, 5.89452445507049560000e-001) (42, 2.09605431556701660000e+000) (43, 9.15597438812255860000e-001) (44, 4.97980713844299320000e-001) (45, -4.04034733772277830000e-001) (46, 4.66515541076660160000e-001) (47, 1.36725175380706790000e+000) (48, -1.08374202251434330000e+000) (49, 1.24967443943023680000e+000) (42, 1.89831995964050290000e+000) (43, 6.69041097164154050000e-001) (44, 3.74584555625915530000e-001) (45, -3.77634465694427490000e-001) (46, 2.43913888931274410000e-001) (47, 1.51457333564758300000e+000) (48, -9.00055766105651860000e-001) (49, 2.46337682008743290000e-001) (42, 2.81547927856445310000e+000) (43, 1.08653461933135990000e+000) (44, 6.74271643161773680000e-001) (45, -5.20744979381561280000e-001) (46, 4.69167083501815800000e-001) (47, 2.09677052497863770000e+000) (48, -1.38805496692657470000e+000) (49, 1.00504875183105470000e+000) 
