FANN_FLO_2.1
num_layers=5
learning_rate=0.700000
connection_rate=1.000000
network_type=0
learning_momentum=0.000000
training_algorithm=2
train_error_function=0
train_stop_function=0
cascade_output_change_fraction=0.010000
quickprop_decay=-0.000100
quickprop_mu=1.750000
rprop_increase_factor=1.200000
rprop_decrease_factor=0.500000
rprop_delta_min=0.000000
rprop_delta_max=50.000000
rprop_delta_zero=0.100000
cascade_output_stagnation_epochs=12
cascade_candidate_change_fraction=0.010000
cascade_candidate_stagnation_epochs=12
cascade_max_out_epochs=150
cascade_min_out_epochs=50
cascade_max_cand_epochs=150
cascade_min_cand_epochs=50
cascade_num_candidate_groups=2
bit_fail_limit=3.49999994039535520000e-001
cascade_candidate_limit=1.00000000000000000000e+003
cascade_weight_multiplier=4.00000005960464480000e-001
cascade_activation_functions_count=10
cascade_activation_functions=3 5 7 8 10 11 14 15 16 17 
cascade_activation_steepnesses_count=4
cascade_activation_steepnesses=2.50000000000000000000e-001 5.00000000000000000000e-001 7.50000000000000000000e-001 1.00000000000000000000e+000 
layer_sizes=17 14 11 8 5 
scale_included=0
neurons (num_inputs, activation_function, activation_steepness)=(0, 0, 0.00000000000000000000e+000) (0, 0, 0.00000000000000000000e+000) (0, 0, 0.00000000000000000000e+000) (0, 0, 0.00000000000000000000e+000) (0, 0, 0.00000000000000000000e+000) (0, 0, 0.00000000000000000000e+000) (0, 0, 0.00000000000000000000e+000) (0, 0, 0.00000000000000000000e+000) (0, 0, 0.00000000000000000000e+000) (0, 0, 0.00000000000000000000e+000) (0, 0, 0.00000000000000000000e+000) (0, 0, 0.00000000000000000000e+000) (0, 0, 0.00000000000000000000e+000) (0, 0, 0.00000000000000000000e+000) (0, 0, 0.00000000000000000000e+000) (0, 0, 0.00000000000000000000e+000) (0, 0, 0.00000000000000000000e+000) (17, 8, 5.00000000000000000000e-001) (17, 8, 5.00000000000000000000e-001) (17, 8, 5.00000000000000000000e-001) (17, 8, 5.00000000000000000000e-001) (17, 8, 5.00000000000000000000e-001) (17, 8, 5.00000000000000000000e-001) (17, 8, 5.00000000000000000000e-001) (17, 8, 5.00000000000000000000e-001) (17, 8, 5.00000000000000000000e-001) (17, 8, 5.00000000000000000000e-001) (17, 8, 5.00000000000000000000e-001) (17, 8, 5.00000000000000000000e-001) (17, 8, 5.00000000000000000000e-001) (0, 8, 5.00000000000000000000e-001) (14, 8, 5.00000000000000000000e-001) (14, 8, 5.00000000000000000000e-001) (14, 8, 5.00000000000000000000e-001) (14, 8, 5.00000000000000000000e-001) (14, 8, 5.00000000000000000000e-001) (14, 8, 5.00000000000000000000e-001) (14, 8, 5.00000000000000000000e-001) (14, 8, 5.00000000000000000000e-001) (14, 8, 5.00000000000000000000e-001) (14, 8, 5.00000000000000000000e-001) (0, 8, 5.00000000000000000000e-001) (11, 8, 5.00000000000000000000e-001) (11, 8, 5.00000000000000000000e-001) (11, 8, 5.00000000000000000000e-001) (11, 8, 5.00000000000000000000e-001) (11, 8, 5.00000000000000000000e-001) (11, 8, 5.00000000000000000000e-001) (11, 8, 5.00000000000000000000e-001) (0, 8, 5.00000000000000000000e-001) (8, 6, 5.00000000000000000000e-001) (8, 6, 5.00000000000000000000e-001) (8, 6, 5.00000000000000000000e-001) (8, 6, 5.00000000000000000000e-001) (0, 6, 5.00000000000000000000e-001) 
connections (connected_to_neuron, weight)=(0, -7.17857331037521360000e-002) (1, 5.03057897090911870000e-001) (2, -5.83907544612884520000e-001) (3, -1.07838523387908940000e+000) (4, -6.50562226772308350000e-001) (5, -9.51292458921670910000e-004) (6, 2.25164389610290530000e+000) (7, 2.13615608215332030000e+000) (8, 2.97624826431274410000e+000) (9, -1.84630799293518070000e+000) (10, 1.43384432792663570000e+000) (11, -6.33779764175415040000e-001) (12, -4.40608337521553040000e-002) (13, 8.27807605266571040000e-001) (14, 4.60387706756591800000e+000) (15, 6.45501017570495610000e-001) (16, 5.25345325469970700000e-001) (0, -8.89291942119598390000e-001) (1, 4.76503992080688480000e+000) (2, -1.59034287929534910000e+000) (3, -1.29556024074554440000e+000) (4, 1.67017376422882080000e+000) (5, -1.66662859916687010000e+000) (6, 4.42814797163009640000e-001) (7, 2.63803791999816890000e+000) (8, -4.05567675828933720000e-001) (9, -1.31432533264160160000e+000) (10, 1.35833203792572020000e+000) (11, -4.03722077608108520000e-001) (12, -3.18552231788635250000e+000) (13, 1.66173362731933590000e+000) (14, 3.70431303977966310000e+000) (15, -2.01023769378662110000e+000) (16, 3.77330660820007320000e-001) (0, -7.41192042827606200000e-001) (1, -1.59706199169158940000e+000) (2, 2.79697155952453610000e+000) (3, 2.95658612251281740000e+000) (4, -3.03320884704589840000e+000) (5, -1.91007882356643680000e-001) (6, -2.17897343635559080000e+000) (7, 2.74883079528808590000e+000) (8, -3.91328364610672000000e-001) (9, -2.36854732036590580000e-001) (10, -5.79806756973266600000e+000) (11, 7.24479866027832030000e+000) (12, -1.15538158416748050000e+001) (13, 4.66258144378662110000e+000) (14, -1.19806420803070070000e+000) (15, -1.59229516983032230000e+000) (16, -8.91394793987274170000e-001) (0, 7.26469814777374270000e-001) (1, -2.35269260406494140000e+000) (2, 1.73587155342102050000e+000) (3, 5.62800943851470950000e-001) (4, 8.25482070446014400000e-001) (5, -4.84408050775527950000e-001) (6, 9.08127903938293460000e-001) (7, 2.57419049739837650000e-001) (8, -1.61372697353363040000e+000) (9, -1.37827157974243160000e-001) (10, 2.56149744987487790000e+000) (11, 1.88645526766777040000e-001) (12, 9.15843069553375240000e-001) (13, -1.23900508880615230000e+000) (14, 1.49766278266906740000e+000) (15, 7.05785751342773440000e-001) (16, 2.88828730583190920000e-001) (0, -1.69621229171752930000e+000) (1, 2.92449283599853520000e+000) (2, 1.72303807735443120000e+000) (3, -9.98164653778076170000e-001) (4, -3.40807008743286130000e+000) (5, 8.30303549766540530000e-001) (6, -8.65789830684661870000e-001) (7, -1.14542150497436520000e+000) (8, 2.89143234491348270000e-001) (9, 1.05862236022949220000e+000) (10, 3.36741566658020020000e+000) (11, 6.05468332767486570000e-001) (12, 2.27909636497497560000e+000) (13, -1.41878855228424070000e+000) (14, -1.39093708992004390000e+000) (15, -2.30010962486267090000e+000) (16, 6.30527377128601070000e-001) (0, 9.82741117477416990000e-001) (1, 1.03183758258819580000e+000) (2, 3.27529788017272950000e-001) (3, -5.06971478462219240000e-001) (4, -3.96898448467254640000e-001) (5, 1.88429474830627440000e+000) (6, 1.97869312763214110000e+000) (7, -3.09747910499572750000e+000) (8, -1.59674787521362300000e+000) (9, 3.22991937398910520000e-001) (10, 1.61210644245147710000e+000) (11, -8.87863337993621830000e-001) (12, 8.78310382366180420000e-001) (13, -6.41103982925415040000e-001) (14, 5.19179344177246090000e-001) (15, 6.58411264419555660000e-001) (16, 6.70887351036071780000e-001) (0, 2.30972290039062500000e+000) (1, -2.67107701301574710000e+000) (2, 2.33665019273757930000e-001) (3, 8.51621210575103760000e-001) (4, -2.92066305875778200000e-001) (5, -7.01984643936157230000e-001) (6, 1.36413097381591800000e+000) (7, -7.04168260097503660000e-001) (8, -2.89254808425903320000e+000) (9, -2.79576927423477170000e-001) (10, 1.96038842201232910000e+000) (11, -1.38037312030792240000e+000) (12, 5.58300113677978520000e+000) (13, 6.04989111423492430000e-001) (14, 8.00123095512390140000e-001) (15, -6.01940727233886720000e+000) (16, 8.08669388294219970000e-001) (0, 3.25218987464904790000e+000) (1, 1.07364928722381590000e+000) (2, 4.08463120460510250000e-001) (3, -7.07357406616210940000e-001) (4, -5.66468298435211180000e-001) (5, -1.58523130416870120000e+000) (6, 3.49289655685424800000e+000) (7, -6.26542627811431880000e-001) (8, -2.82501506805419920000e+000) (9, -1.46862894296646120000e-001) (10, 4.85020494461059570000e+000) (11, 3.05310320854187010000e+000) (12, 9.22368288040161130000e-001) (13, 1.72012504190206530000e-002) (14, 2.26174235343933110000e+000) (15, -1.00951254367828370000e+000) (16, -3.26677680015563960000e-001) (0, -3.41425776481628420000e+000) (1, 3.34417557716369630000e+000) (2, 2.59303599596023560000e-001) (3, 2.83581113815307620000e+000) (4, 5.02329921722412110000e+000) (5, 1.91608712077140810000e-001) (6, 7.20977640151977540000e+000) (7, -1.57589578628540040000e+000) (8, -2.44198918342590330000e+000) (9, 2.36603331565856930000e+000) (10, 3.33106207847595210000e+000) (11, 5.61742186546325680000e-001) (12, -9.41741943359375000000e-001) (13, -1.12444849014282230000e+001) (14, -5.17206132411956790000e-001) (15, 2.51695251464843750000e+000) (16, 9.25867035984992980000e-002) (0, -2.58245134353637700000e+000) (1, 1.19279694557189940000e+000) (2, 1.52196133136749270000e+000) (3, -8.28073859214782710000e-001) (4, -1.70183432102203370000e+000) (5, 1.62014484405517580000e+000) (6, 1.07779037952423100000e+000) (7, -9.54665064811706540000e-001) (8, 1.29300343990325930000e+000) (9, -6.36289864778518680000e-002) (10, 7.14435279369354250000e-001) (11, -2.24701571464538570000e+000) (12, -5.66545307636260990000e-001) (13, 1.01560211181640630000e+000) (14, -8.74691128730773930000e-001) (15, 2.91561812162399290000e-001) (16, 1.17290914058685300000e+000) (0, 2.43615794181823730000e+000) (1, -8.86345744132995610000e-001) (2, 8.79112052917480470000e+000) (3, -6.95044851303100590000e+000) (4, -3.23156088590621950000e-001) (5, -2.14110565185546870000e+000) (6, 7.60596513748168950000e+000) (7, -3.88453650474548340000e+000) (8, -4.73472404479980470000e+000) (9, 2.44679832458496090000e+000) (10, 3.75968408584594730000e+000) (11, 7.51948547363281250000e+000) (12, 3.52180671691894530000e+000) (13, 6.71548664569854740000e-001) (14, -2.39244127273559570000e+000) (15, 2.43439602851867680000e+000) (16, -4.91092801094055180000e-001) (0, -4.60568338632583620000e-001) (1, 1.72883248329162600000e+000) (2, 2.45354962348937990000e+000) (3, 4.72787350416183470000e-001) (4, 1.97420752048492430000e+000) (5, 1.76405680179595950000e+000) (6, 1.99682044982910160000e+000) (7, -2.85119199752807620000e+000) (8, -1.30990624427795410000e+000) (9, -8.62621188163757320000e-001) (10, 3.16201388835906980000e-001) (11, -4.85409229993820190000e-001) (12, 1.16252675652503970000e-001) (13, 2.73958202451467510000e-002) (14, 3.68242859840393070000e-001) (15, -7.63151645660400390000e-001) (16, 1.05112564563751220000e+000) (0, 1.37149786949157710000e+000) (1, 5.90535938739776610000e-001) (2, 2.08263531327247620000e-001) (3, 3.60905140638351440000e-001) (4, 3.26404809951782230000e-001) (5, 8.21351468563079830000e-001) (6, -1.93140995502471920000e+000) (7, 1.33333075046539310000e+000) (8, 2.80220866203308110000e-001) (9, 6.52806580066680910000e-001) (10, 1.58400976657867430000e+000) (11, -6.86660408973693850000e-002) (12, -2.83645343780517580000e+000) (13, -9.35551822185516360000e-001) (14, -2.64562405645847320000e-002) (15, 9.73413363099098210000e-002) (16, 3.94984424114227290000e-001) (17, 1.41021776199340820000e+000) (18, 6.18515729904174800000e-001) (19, 1.02362811565399170000e+000) (20, -1.32373750209808350000e+000) (21, -3.34739983081817630000e-001) (22, 1.97172552347183230000e-001) (23, 5.54815435409545900000e+000) (24, 1.82861697673797610000e+000) (25, -7.11435854434967040000e-001) (26, 2.15543889999389650000e+000) (27, 8.52358698844909670000e-001) (28, 7.05464839935302730000e-001) (29, 2.64072489738464360000e+000) (30, 1.22737145423889160000e+000) (17, 7.82108008861541750000e-002) (18, 2.14320802688598630000e+000) (19, 3.44765990972518920000e-001) (20, 1.48858439922332760000e+000) (21, -8.20386946201324460000e-001) (22, -2.57766786962747570000e-002) (23, 1.72961390018463130000e+000) (24, 6.71895503997802730000e-001) (25, 1.05867588520050050000e+000) (26, 2.50940060615539550000e+000) (27, 9.07905280590057370000e-001) (28, 9.55943703651428220000e-001) (29, 4.47968149185180660000e+000) (30, 1.76046943664550780000e+000) (17, -5.12540400028228760000e-001) (18, 2.06371784210205080000e+000) (19, -8.23540270328521730000e-001) (20, -1.67883634567260740000e+000) (21, -1.01952636241912840000e+000) (22, 1.48868858814239500000e+000) (23, 2.18859338760375980000e+000) (24, -2.64982402324676510000e-001) (25, 4.47656661272048950000e-001) (26, 1.82398641109466550000e+000) (27, 2.74625390768051150000e-001) (28, -2.86473244428634640000e-001) (29, 6.58488452434539790000e-001) (30, 6.48808777332305910000e-001) (17, 5.17041683197021480000e+000) (18, 2.10372805595397950000e+000) (19, 1.29254198074340820000e+000) (20, 1.84867238998413090000e+000) (21, 6.18573546409606930000e-001) (22, 9.18160259723663330000e-001) (23, 1.48707437515258790000e+000) (24, 7.10533952713012700000e+000) (25, 9.60492730140686040000e-001) (26, 1.73439610004425050000e+000) (27, -1.32119402289390560000e-001) (28, 3.61230462789535520000e-001) (29, 2.56607800722122190000e-001) (30, 6.62222206592559810000e-001) (17, 6.98366522789001460000e-001) (18, 4.55855417251586910000e+000) (19, 1.57758712768554690000e+000) (20, 1.67585670948028560000e+000) (21, 5.12974224984645840000e-002) (22, 7.81179070472717290000e-001) (23, 5.35242843627929690000e+000) (24, 4.49890375137329100000e+000) (25, 6.37372076511383060000e-001) (26, 4.12879323959350590000e+000) (27, 5.26250600814819340000e-001) (28, -2.46352985501289370000e-001) (29, 4.70099735260009770000e+000) (30, 2.16716814041137700000e+000) (17, 2.12490630149841310000e+000) (18, 3.04589056968688960000e+000) (19, -6.16183280944824220000e-001) (20, 7.63789033889770510000e+000) (21, 6.57059574127197270000e+000) (22, 1.40128123760223390000e+000) (23, 1.56760144233703610000e+000) (24, 5.58832883834838870000e-001) (25, 3.87433350086212160000e-001) (26, 4.03210592269897460000e+000) (27, 3.62230539321899410000e+000) (28, 5.22033977508544920000e+000) (29, 9.65820312500000000000e-001) (30, 1.71630239486694340000e+000) (17, 1.52988970279693600000e-001) (18, 1.64673879742622380000e-001) (19, 1.84140694141387940000e+000) (20, -5.08151829242706300000e-001) (21, 5.11748313903808590000e-001) (22, 8.04244577884674070000e-001) (23, 7.51125931739807130000e-001) (24, -2.23094487190246580000e+000) (25, 1.40749204158782960000e+000) (26, 6.96039438247680660000e+000) (27, 9.34264481067657470000e-001) (28, 5.10594010353088380000e-001) (29, 4.62235718965530400000e-001) (30, 4.35205817222595210000e-001) (17, -8.55812788009643550000e-001) (18, 5.41294097900390630000e-001) (19, 8.20389509201049800000e-001) (20, 6.82484483718872070000e+000) (21, 1.32899296283721920000e+000) (22, 1.17239907383918760000e-001) (23, 2.71354961395263670000e+000) (24, 3.06178331375122070000e+000) (25, -3.01846694946289060000e+000) (26, 8.44865381717681880000e-001) (27, -2.90538847446441650000e-001) (28, 3.99321198463439940000e+000) (29, 1.42764854431152340000e+000) (30, 1.68332755565643310000e+000) (17, 1.43071305751800540000e+000) (18, 2.79102349281311040000e+000) (19, 1.22586357593536380000e+000) (20, 1.40791618824005130000e+000) (21, 3.31011086702346800000e-001) (22, 3.53647160530090330000e+000) (23, 2.51233029365539550000e+000) (24, 1.07923054695129390000e+000) (25, 1.11080193519592290000e+000) (26, -5.54753541946411130000e-002) (27, 3.49595278501510620000e-001) (28, 4.47145032882690430000e+000) (29, 6.72507858276367190000e+000) (30, 1.81070625782012940000e+000) (17, -9.54318270087242130000e-002) (18, -1.99141830205917360000e-001) (19, 1.46589195728302000000e+000) (20, 5.18846154212951660000e-001) (21, 1.12515342235565190000e+000) (22, 1.53126776218414310000e+000) (23, -1.32682824134826660000e+000) (24, 1.07228779792785640000e+000) (25, -2.35637396574020390000e-001) (26, 1.57435214519500730000e+000) (27, -1.07455193996429440000e+000) (28, 2.79030829668045040000e-001) (29, -1.02302528917789460000e-001) (30, 1.61830093711614610000e-002) (31, -4.02698665857315060000e-001) (32, 2.94491738080978390000e-001) (33, -3.74127119779586790000e-001) (34, -6.04876041412353520000e-001) (35, 8.01582872867584230000e-001) (36, 9.82187271118164060000e-001) (37, 6.77205502986907960000e-001) (38, 3.07441294193267820000e-001) (39, -1.23402982950210570000e-001) (40, -2.49033853411674500000e-001) (41, 8.26054692268371580000e-001) (31, 6.77950739860534670000e-001) (32, -1.25843495130538940000e-001) (33, 1.90893396735191350000e-001) (34, -6.48213505744934080000e-001) (35, 4.20459508895874020000e-002) (36, 4.93369102478027340000e-002) (37, 3.43160003423690800000e-001) (38, -3.59052196145057680000e-002) (39, 1.14734792709350590000e+000) (40, -5.56881129741668700000e-001) (41, 1.30974662303924560000e+000) (31, -6.90264761447906490000e-001) (32, -2.04328566789627080000e-001) (33, -2.66005754470825200000e-001) (34, -3.89351427555084230000e-001) (35, -1.37609869241714480000e-001) (36, 1.33738076686859130000e+000) (37, 1.09100687503814700000e+000) (38, 7.88903608918190000000e-002) (39, -2.45798557996749880000e-001) (40, -2.58524596691131590000e-001) (41, 2.13344383239746090000e+000) (31, 2.37461590766906740000e+000) (32, 2.79727339744567870000e+000) (33, -1.37773454189300540000e+000) (34, -6.64327740669250490000e-001) (35, 1.01571929454803470000e+000) (36, -2.19803214073181150000e+000) (37, 2.27369832992553710000e+000) (38, 5.27902412414550780000e+000) (39, 1.41429042816162110000e+000) (40, 1.75418424606323240000e+000) (41, 2.50410389900207520000e+000) (31, -5.25922536849975590000e-001) (32, -3.39535713195800780000e-001) (33, 1.44807362556457520000e+000) (34, 1.81959354877471920000e+000) (35, 9.03177112340927120000e-002) (36, 7.16856241226196290000e-001) (37, 1.09425652027130130000e+000) (38, 1.30579090118408200000e+000) (39, 7.96837270259857180000e-001) (40, 6.32788479328155520000e-001) (41, 6.02429136633872990000e-002) (31, 5.64534306526184080000e-001) (32, 5.39967298507690430000e-001) (33, 1.42227041721343990000e+000) (34, 1.19056856632232670000e+000) (35, 1.55691564083099370000e+000) (36, -2.64133334159851070000e-001) (37, -2.29848206043243410000e-001) (38, -5.83120584487915040000e-001) (39, 3.41280072927474980000e-001) (40, 9.08930063247680660000e-001) (41, 1.37299358844757080000e+000) (31, 1.92466711997985840000e+000) (32, 4.37807887792587280000e-001) (33, 1.05619513988494870000e+000) (34, 5.08614778518676760000e+000) (35, -1.00590336322784420000e+000) (36, 6.68379902839660640000e-001) (37, 3.90849733352661130000e+000) (38, 1.95491206645965580000e+000) (39, 1.46647095680236820000e+000) (40, 1.60166680812835690000e+000) (41, 1.80194032192230220000e+000) (42, 1.36147749423980710000e+000) (43, 7.20768392086029050000e-001) (44, 1.27117061614990230000e+000) (45, 1.31275033950805660000e+000) (46, 1.62154972553253170000e-001) (47, 7.61798560619354250000e-001) (48, 1.90210774540901180000e-001) (49, 5.94620585441589360000e-001) (42, 6.47371947765350340000e-001) (43, 1.06323397159576420000e+000) (44, 1.28882336616516110000e+000) (45, 1.65315616130828860000e+000) (46, -2.81875878572463990000e-001) (47, 1.06421601772308350000e+000) (48, 4.90505337715148930000e-001) (49, 1.49930322170257570000e+000) (42, 1.01688694953918460000e+000) (43, 1.33108258247375490000e+000) (44, 1.53874242305755620000e+000) (45, 1.25750422477722170000e+000) (46, -7.17415392398834230000e-001) (47, 9.31218564510345460000e-001) (48, 1.24075329303741460000e+000) (49, 3.74462515115737920000e-001) (42, 6.61050140857696530000e-001) (43, 1.61101102828979490000e+000) (44, 1.77287888526916500000e+000) (45, 1.45161080360412600000e+000) (46, -1.02129006385803220000e+000) (47, 1.25398623943328860000e+000) (48, 1.46185803413391110000e+000) (49, 9.84969794750213620000e-001) 
