FANN_FLO_2.1
num_layers=5
learning_rate=0.700000
connection_rate=1.000000
network_type=0
learning_momentum=0.000000
training_algorithm=2
train_error_function=0
train_stop_function=0
cascade_output_change_fraction=0.010000
quickprop_decay=-0.000100
quickprop_mu=1.750000
rprop_increase_factor=1.200000
rprop_decrease_factor=0.500000
rprop_delta_min=0.000000
rprop_delta_max=50.000000
rprop_delta_zero=0.100000
cascade_output_stagnation_epochs=12
cascade_candidate_change_fraction=0.010000
cascade_candidate_stagnation_epochs=12
cascade_max_out_epochs=150
cascade_min_out_epochs=50
cascade_max_cand_epochs=150
cascade_min_cand_epochs=50
cascade_num_candidate_groups=2
bit_fail_limit=3.49999994039535520000e-001
cascade_candidate_limit=1.00000000000000000000e+003
cascade_weight_multiplier=4.00000005960464480000e-001
cascade_activation_functions_count=10
cascade_activation_functions=3 5 7 8 10 11 14 15 16 17 
cascade_activation_steepnesses_count=4
cascade_activation_steepnesses=2.50000000000000000000e-001 5.00000000000000000000e-001 7.50000000000000000000e-001 1.00000000000000000000e+000 
layer_sizes=17 14 11 8 5 
scale_included=0
neurons (num_inputs, activation_function, activation_steepness)=(0, 0, 0.00000000000000000000e+000) (0, 0, 0.00000000000000000000e+000) (0, 0, 0.00000000000000000000e+000) (0, 0, 0.00000000000000000000e+000) (0, 0, 0.00000000000000000000e+000) (0, 0, 0.00000000000000000000e+000) (0, 0, 0.00000000000000000000e+000) (0, 0, 0.00000000000000000000e+000) (0, 0, 0.00000000000000000000e+000) (0, 0, 0.00000000000000000000e+000) (0, 0, 0.00000000000000000000e+000) (0, 0, 0.00000000000000000000e+000) (0, 0, 0.00000000000000000000e+000) (0, 0, 0.00000000000000000000e+000) (0, 0, 0.00000000000000000000e+000) (0, 0, 0.00000000000000000000e+000) (0, 0, 0.00000000000000000000e+000) (17, 8, 5.00000000000000000000e-001) (17, 8, 5.00000000000000000000e-001) (17, 8, 5.00000000000000000000e-001) (17, 8, 5.00000000000000000000e-001) (17, 8, 5.00000000000000000000e-001) (17, 8, 5.00000000000000000000e-001) (17, 8, 5.00000000000000000000e-001) (17, 8, 5.00000000000000000000e-001) (17, 8, 5.00000000000000000000e-001) (17, 8, 5.00000000000000000000e-001) (17, 8, 5.00000000000000000000e-001) (17, 8, 5.00000000000000000000e-001) (17, 8, 5.00000000000000000000e-001) (0, 8, 5.00000000000000000000e-001) (14, 8, 5.00000000000000000000e-001) (14, 8, 5.00000000000000000000e-001) (14, 8, 5.00000000000000000000e-001) (14, 8, 5.00000000000000000000e-001) (14, 8, 5.00000000000000000000e-001) (14, 8, 5.00000000000000000000e-001) (14, 8, 5.00000000000000000000e-001) (14, 8, 5.00000000000000000000e-001) (14, 8, 5.00000000000000000000e-001) (14, 8, 5.00000000000000000000e-001) (0, 8, 5.00000000000000000000e-001) (11, 8, 5.00000000000000000000e-001) (11, 8, 5.00000000000000000000e-001) (11, 8, 5.00000000000000000000e-001) (11, 8, 5.00000000000000000000e-001) (11, 8, 5.00000000000000000000e-001) (11, 8, 5.00000000000000000000e-001) (11, 8, 5.00000000000000000000e-001) (0, 8, 5.00000000000000000000e-001) (8, 6, 5.00000000000000000000e-001) (8, 6, 5.00000000000000000000e-001) (8, 6, 5.00000000000000000000e-001) (8, 6, 5.00000000000000000000e-001) (0, 6, 5.00000000000000000000e-001) 
connections (connected_to_neuron, weight)=(0, 4.62492275238037110000e+000) (1, -6.73693697899580000000e-003) (2, 1.42865133285522460000e+000) (3, 2.38267347216606140000e-001) (4, 1.58476924896240230000e+000) (5, 1.69603240489959720000e+000) (6, 2.51151394844055180000e+000) (7, 8.94505381584167480000e-002) (8, 3.66603231430053710000e+000) (9, -7.76488661766052250000e-001) (10, 8.53034019470214840000e-001) (11, 1.19649410247802730000e+000) (12, 1.00174820423126220000e+000) (13, 7.79884234070777890000e-002) (14, 2.36603069305419920000e+000) (15, 2.00742378830909730000e-001) (16, -1.02873933315277100000e+000) (0, 3.21815013885498050000e+000) (1, 3.19585585594177250000e+000) (2, -7.00171530246734620000e-001) (3, -6.17434918880462650000e-001) (4, 2.28970413208007810000e+001) (5, 1.58640980720520020000e+000) (6, -4.22010421752929690000e+000) (7, 3.67339897155761720000e+000) (8, -2.58707833290100100000e+000) (9, -6.76479756832122800000e-001) (10, -9.24440956115722660000e+000) (11, 2.57446616888046260000e-001) (12, 6.10423088073730470000e-001) (13, 3.71685123443603520000e+000) (14, 2.67613911628723140000e+000) (15, 7.90527725219726560000e+000) (16, 7.36559331417083740000e-001) (0, 3.63511347770690920000e+000) (1, 2.10449293255805970000e-001) (2, -1.79584765434265140000e+000) (3, 5.25324821472167970000e-001) (4, 1.35650701522827150000e+001) (5, -4.14199733734130860000e+000) (6, -2.60312533378601070000e+000) (7, -2.69498324394226070000e+000) (8, 1.12134847640991210000e+001) (9, -9.31680917739868160000e-001) (10, -8.30998361110687260000e-001) (11, -1.96272027492523190000e+000) (12, -3.33245730400085450000e+000) (13, -4.66654968261718750000e+000) (14, -1.09853839874267580000e+000) (15, 3.78947591781616210000e+000) (16, -5.46757817268371580000e-001) (0, 8.56658744812011720000e+000) (1, -4.03330755233764650000e+000) (2, 1.65526485443115230000e+000) (3, 4.76731538772583010000e+000) (4, -1.12793006896972660000e+001) (5, -1.18771247565746310000e-001) (6, 5.44992983341217040000e-002) (7, 4.40420913696289060000e+000) (8, 8.98196601867675780000e+000) (9, 9.33628439903259280000e-001) (10, -8.28810119628906250000e+000) (11, -2.06440711021423340000e+000) (12, 8.75750446319580080000e+000) (13, 2.96758222579956050000e+000) (14, -5.80061531066894530000e+000) (15, 1.11697711050510410000e-001) (16, 1.06132733821868900000e+000) (0, -2.09087157249450680000e+000) (1, 7.72215604782104490000e-001) (2, 1.43650579452514650000e+000) (3, 9.33089673519134520000e-001) (4, -4.06357735395431520000e-001) (5, 8.67522895336151120000e-001) (6, 3.45706081390380860000e+000) (7, -5.22861815989017490000e-002) (8, -2.63008832931518550000e+000) (9, 1.28625905513763430000e+000) (10, 1.70623771846294400000e-002) (11, 8.77457916736602780000e-001) (12, 2.59564971923828120000e+000) (13, -8.35639894008636470000e-001) (14, 3.41234254837036130000e+000) (15, 9.46258425712585450000e-001) (16, -4.10164684057235720000e-001) (0, -7.09733366966247560000e-001) (1, -1.94030031561851500000e-001) (2, -2.68484920263290410000e-001) (3, 1.00131499767303470000e+000) (4, 4.23088759183883670000e-001) (5, -1.00267720222473140000e+000) (6, -6.72038972377777100000e-001) (7, 6.10925793647766110000e-001) (8, -2.71086126565933230000e-001) (9, -5.83984851837158200000e-001) (10, 1.61038935184478760000e-001) (11, 1.27523791790008540000e+000) (12, -4.58170270919799800000e+000) (13, 9.34710860252380370000e-001) (14, 1.11344408988952640000e+000) (15, -5.46545207500457760000e-001) (16, 1.18388998508453370000e+000) (0, 1.62845504283905030000e+000) (1, 3.73275756835937500000e-001) (2, 5.71725368499755860000e-001) (3, -2.02313327789306640000e+000) (4, -1.40671896934509280000e+000) (5, 1.04392457008361820000e+000) (6, 7.87663638591766360000e-001) (7, -1.08953034877777100000e+000) (8, 4.26659393310546870000e+000) (9, 8.94679307937622070000e-001) (10, 6.01754605770111080000e-001) (11, 1.13649201393127440000e+000) (12, -8.82527351379394530000e-001) (13, -1.06117583811283110000e-001) (14, -1.84465810656547550000e-001) (15, -4.81838732957839970000e-002) (16, 1.51874732971191410000e+000) (0, -9.44750022888183590000e+000) (1, 3.21199178695678710000e+000) (2, -9.66018497943878170000e-001) (3, 2.63776898384094240000e+000) (4, -3.70120942592620850000e-001) (5, 7.55881845951080320000e-001) (6, 1.54187083244323730000e+000) (7, -1.98611363768577580000e-001) (8, -3.34448838233947750000e+000) (9, 5.60824811458587650000e-001) (10, -5.19260358810424800000e+000) (11, 1.16184043884277340000e+000) (12, 1.08861184120178220000e+000) (13, 8.48386645317077640000e-001) (14, -5.95865130424499510000e-001) (15, 2.83137822151184080000e+000) (16, 8.98657798767089840000e-001) (0, 5.15072488784790040000e+000) (1, 1.08892905712127690000e+000) (2, 2.46505212783813480000e+000) (3, -6.98338127136230470000e+000) (4, -1.71679306030273440000e+001) (5, 6.05430889129638670000e+000) (6, -1.18230201303958890000e-001) (7, -1.19434976577758790000e+000) (8, -9.93959069252014160000e-001) (9, -1.06703448295593260000e+000) (10, 1.06092655658721920000e+000) (11, 9.46339190006256100000e-001) (12, -6.26291131973266600000e+000) (13, -2.34201622009277340000e+000) (14, -5.87626576423645020000e-001) (15, 4.88348484039306640000e+000) (16, -4.69045311212539670000e-001) (0, 4.57797336578369140000e+000) (1, -1.79262673854827880000e+000) (2, 1.05074977874755860000e+000) (3, -5.87898159027099610000e+000) (4, 5.33308029174804690000e+000) (5, 1.45949691534042360000e-001) (6, -2.44075608253479000000e+000) (7, 2.89183402061462400000e+000) (8, 2.95117998123168950000e+000) (9, -9.17905569076538090000e-001) (10, 1.24195408821105960000e+000) (11, 1.47290909290313720000e+000) (12, 3.75176095962524410000e+000) (13, -3.18876445293426510000e-001) (14, 4.28316879272460940000e+000) (15, -3.63229513168334960000e-002) (16, 6.32818281650543210000e-001) (0, -2.08924460411071780000e+000) (1, 4.46682739257812500000e+000) (2, -5.25305196642875670000e-002) (3, 6.13793563842773440000e+000) (4, 3.29825439453125000000e+001) (5, 3.59415221214294430000e+000) (6, -2.28888750076293950000e+000) (7, -4.38281202316284180000e+000) (8, -7.70529747009277340000e+000) (9, -1.45948186516761780000e-001) (10, -2.98491024971008300000e+000) (11, 3.61785745620727540000e+000) (12, -8.00146484375000000000e+000) (13, 1.84931790828704830000e+000) (14, -4.60120499134063720000e-001) (15, 1.74383008480072020000e+000) (16, 1.31811010837554930000e+000) (0, 2.25335550308227540000e+000) (1, -1.95438873767852780000e+000) (2, 3.57534468173980710000e-001) (3, 3.37506723403930660000e+000) (4, -9.68239116668701170000e+000) (5, 2.42107585072517400000e-001) (6, -5.11807632446289060000e+000) (7, -1.98058575391769410000e-001) (8, -6.50748470798134800000e-003) (9, -1.08530330657958980000e+000) (10, -1.02345824241638180000e+000) (11, 8.85989189147949220000e-001) (12, 3.74716925621032710000e+000) (13, -1.68755650520324710000e+000) (14, 1.31679368019104000000e+000) (15, 1.22146271169185640000e-001) (16, -4.01818990707397460000e-001) (0, -8.05963706970214840000e+000) (1, -1.75064647197723390000e+000) (2, -1.68866109848022460000e+000) (3, 3.89958453178405760000e+000) (4, -3.55944752693176270000e+000) (5, -2.83861178904771800000e-002) (6, 1.07110893726348880000e+000) (7, 4.04495447874069210000e-001) (8, 1.82833614349365230000e+001) (9, 2.73552751541137700000e+000) (10, 2.88136863708496090000e+000) (11, -3.49224948883056640000e+000) (12, -1.65106713771820070000e+000) (13, -1.05530858039855960000e+000) (14, 1.17482817173004150000e+000) (15, 6.75963640213012700000e-001) (16, 1.56094238162040710000e-001) (17, 6.85271263122558590000e-001) (18, 9.38960611820220950000e-001) (19, 6.40493988990783690000e-001) (20, 4.51905876398086550000e-001) (21, 2.11848273873329160000e-001) (22, 1.20564472675323490000e+000) (23, -3.83286744356155400000e-001) (24, 3.20104330778121950000e-001) (25, 2.57967889308929440000e-001) (26, 5.78838229179382320000e-001) (27, 3.57444018125534060000e-001) (28, 3.95621180534362790000e-001) (29, 4.48544383049011230000e-001) (30, 4.11899119615554810000e-001) (17, 4.34025526046752930000e-001) (18, -9.61798131465911870000e-001) (19, -2.84838050603866580000e-001) (20, 2.82793879508972170000e-001) (21, -2.29551956057548520000e-001) (22, -9.30458366870880130000e-001) (23, -3.31706665456295010000e-002) (24, -7.61319100856781010000e-001) (25, 8.52552354335784910000e-002) (26, 9.99714136123657230000e-001) (27, 5.12314319610595700000e-001) (28, 9.30567800998687740000e-001) (29, 3.95652204751968380000e-001) (30, 3.30939173698425290000e-001) (17, -7.63436779379844670000e-002) (18, -1.13610756397247310000e+000) (19, -8.04629445075988770000e-001) (20, -4.12754565477371220000e-001) (21, 1.48789003491401670000e-001) (22, -5.63191533088684080000e-001) (23, 3.43954980373382570000e-001) (24, 7.85337209701538090000e-001) (25, -7.91935771703720090000e-002) (26, -1.33965277671813960000e+000) (27, -2.16833695769310000000e-001) (28, 1.59923911094665530000e-001) (29, 5.93244075775146480000e-001) (30, -4.44283187389373780000e-001) (17, -7.70540833473205570000e-001) (18, 2.24760577082633970000e-001) (19, 9.77738618850708010000e-001) (20, 2.78385281562805180000e-001) (21, 8.81509542465209960000e-001) (22, -1.31630575656890870000e+000) (23, -4.46986556053161620000e-001) (24, 7.82449483871459960000e-001) (25, -3.25929522514343260000e-001) (26, -1.35985600948333740000e+000) (27, 4.92977708578109740000e-001) (28, 4.63116139173507690000e-001) (29, -5.96029400825500490000e-001) (30, 6.66236102581024170000e-001) (17, 1.46740782260894780000e+000) (18, -1.13196380436420440000e-001) (19, 3.56338053941726680000e-001) (20, 1.07215344905853270000e+000) (21, -1.39566075801849370000e+000) (22, 5.05183041095733640000e-001) (23, 4.12265151739120480000e-001) (24, 4.20857131481170650000e-001) (25, 2.25153103470802310000e-001) (26, 2.92549759149551390000e-001) (27, -3.35458606481552120000e-001) (28, 6.51921212673187260000e-001) (29, 4.41426753997802730000e-001) (30, 3.80982875823974610000e-001) (17, -2.56889551877975460000e-001) (18, -1.95674076676368710000e-001) (19, 6.99242115020751950000e-001) (20, 1.28888450562953950000e-002) (21, 1.21882903575897220000e+000) (22, 4.15067464113235470000e-001) (23, 1.00648486614227290000e+000) (24, 8.42878699302673340000e-001) (25, 1.51831954717636110000e-001) (26, 4.36021298170089720000e-001) (27, 3.64758342504501340000e-001) (28, 1.65572598576545720000e-001) (29, 3.85693430900573730000e-001) (30, 8.19263935089111330000e-001) (17, 3.97245734930038450000e-001) (18, 1.05675041675567630000e+000) (19, 4.77122187614440920000e-001) (20, 2.14873343706130980000e-001) (21, 1.29560753703117370000e-001) (22, 3.48863482475280760000e-001) (23, 4.78789269924163820000e-001) (24, 8.34247946739196780000e-001) (25, 4.63657975196838380000e-001) (26, 4.66670840978622440000e-001) (27, 8.41096162796020510000e-001) (28, 4.55804437398910520000e-001) (29, 1.13546526432037350000e+000) (30, 1.31887996196746830000e+000) (17, -2.26880207657814030000e-001) (18, 2.13384494185447690000e-001) (19, 4.45042788982391360000e-001) (20, -1.36791933327913280000e-002) (21, 4.10193771123886110000e-001) (22, 2.57948309183120730000e-001) (23, 2.23513305187225340000e-001) (24, 7.61174261569976810000e-002) (25, -2.43862494826316830000e-002) (26, -3.34761410951614380000e-001) (27, -3.85209292173385620000e-001) (28, 2.17470736242830750000e-003) (29, 3.15357223153114320000e-002) (30, 9.87237766385078430000e-002) (17, 1.04029893875122070000e+000) (18, 2.14819833636283870000e-001) (19, 3.09903860092163090000e-001) (20, 1.25502204895019530000e+000) (21, -1.74496084451675420000e-001) (22, 2.01630949974060060000e+000) (23, 9.44082140922546390000e-001) (24, -3.57741266489028930000e-001) (25, 5.91750800609588620000e-001) (26, 5.10372579097747800000e-001) (27, 2.86457389593124390000e-001) (28, 6.48273587226867680000e-001) (29, 3.29375267028808590000e-001) (30, 1.30081653594970700000e-001) (17, 4.93327051401138310000e-001) (18, 2.38329932093620300000e-001) (19, 4.38676446676254270000e-001) (20, 4.91211563348770140000e-001) (21, 1.06055819988250730000e+000) (22, 8.87127041816711430000e-001) (23, 4.98985439538955690000e-001) (24, 6.94474160671234130000e-001) (25, 9.56672504544258120000e-002) (26, 4.80374246835708620000e-001) (27, 3.67102801799774170000e-001) (28, 5.22158145904541020000e-001) (29, 2.35780343413352970000e-001) (30, 4.80511831119656560000e-003) (31, 3.11503505706787110000e+000) (32, -5.26680424809455870000e-002) (33, -1.52429664134979250000e+000) (34, -2.79002517461776730000e-001) (35, 3.19661283493041990000e+000) (36, 1.79829006195068360000e+001) (37, 3.69556474685668950000e+000) (38, 5.21018886566162110000e+000) (39, 2.17736792564392090000e+000) (40, 1.62109279632568360000e+001) (41, 2.07437443733215330000e+000) (31, -6.99999475479125980000e+000) (32, -9.40267741680145260000e-001) (33, 9.90723705291748050000e+000) (34, 1.30509555339813230000e+000) (35, 8.18575191497802730000e+000) (36, -7.13672494888305660000e+000) (37, -2.82592248916625980000e+000) (38, 1.23629131317138670000e+001) (39, 6.90858006477355960000e-001) (40, 5.88246870040893550000e+000) (41, 3.85138678550720210000e+000) (31, 6.67963624000549320000e-001) (32, 2.45374992489814760000e-001) (33, -2.46684148907661440000e-001) (34, -6.14847242832183840000e-001) (35, -4.76019620895385740000e-001) (36, -4.52589452266693120000e-001) (37, -4.99729752540588380000e-001) (38, -8.66885185241699220000e-001) (39, 1.84579551219940190000e-001) (40, -3.62101532518863680000e-002) (41, 1.02477455139160160000e+000) (31, 2.11022529602050780000e+001) (32, -4.40711641311645510000e+000) (33, 1.76371669769287110000e+001) (34, 6.80954551696777340000e+000) (35, -2.06844305992126460000e+000) (36, 5.72636723518371580000e-001) (37, 3.43329453468322750000e+000) (38, 8.76220107078552250000e-001) (39, 3.28324866294860840000e+000) (40, 1.29429283142089840000e+001) (41, 3.13105344772338870000e+000) (31, -3.84886884689331050000e+000) (32, 1.15016293525695800000e+000) (33, 2.06989097595214840000e+000) (34, 1.08332550525665280000e+000) (35, 2.18251585960388180000e+000) (36, 1.49708461761474610000e+000) (37, 1.64611876010894780000e+000) (38, 2.24550390243530270000e+000) (39, -3.95293045043945310000e+000) (40, 2.21009397506713870000e+000) (41, 8.73986124992370610000e-001) (31, -2.87910294532775880000e+000) (32, 3.34057867527008060000e-001) (33, 7.25564360618591310000e-001) (34, 7.33278632164001460000e-001) (35, 1.36148738861083980000e+000) (36, -9.98912751674652100000e-001) (37, 1.02307391166687010000e+000) (38, 7.70223379135131840000e-001) (39, -1.62969756126403810000e+000) (40, 8.86826068162918090000e-002) (41, 1.62524628639221190000e+000) (31, 2.34330937266349790000e-001) (32, -8.13346654176712040000e-002) (33, -1.44979223608970640000e-001) (34, -9.87969245761632920000e-003) (35, -5.57870343327522280000e-002) (36, -5.39934515953063960000e-001) (37, -2.88307219743728640000e-001) (38, -2.55315989255905150000e-001) (39, 2.33023688197135930000e-001) (40, -4.04193431138992310000e-001) (41, -3.48061740398406980000e-001) (42, 6.65354803204536440000e-002) (43, 3.74340802431106570000e-001) (44, 2.01766699552536010000e-001) (45, 1.87040001153945920000e-001) (46, 2.21966758370399480000e-001) (47, 1.29245907068252560000e-001) (48, 2.86589533090591430000e-001) (49, 5.12600839138031010000e-001) (42, 3.34680646657943730000e-001) (43, 3.73248100280761720000e-001) (44, 7.03498423099517820000e-001) (45, 3.92717361450195310000e-001) (46, 1.87387311458587650000e+000) (47, 3.11612606048583980000e-001) (48, 4.91293191909790040000e-001) (49, 2.30299329757690430000e+000) (42, 2.99198925495147710000e-001) (43, 1.22423934936523440000e+000) (44, 8.41344594955444340000e-001) (45, 3.88033151626586910000e-001) (46, 5.97273558378219600000e-002) (47, 6.53851151466369630000e-001) (48, 1.84123206138610840000e+000) (49, -2.00456500053405760000e-001) (42, 5.39996743202209470000e-001) (43, 9.06849384307861330000e-001) (44, 1.41886520385742190000e+000) (45, 5.90731024742126460000e-001) (46, 1.37328958511352540000e+000) (47, 8.25869858264923100000e-001) (48, 2.03564667701721190000e+000) (49, 8.30710411071777340000e-001) 
