FANN_FLO_2.1
num_layers=12
learning_rate=0.700000
connection_rate=1.000000
network_type=1
learning_momentum=0.000000
training_algorithm=2
train_error_function=0
train_stop_function=0
cascade_output_change_fraction=0.010000
quickprop_decay=-0.000100
quickprop_mu=1.750000
rprop_increase_factor=1.200000
rprop_decrease_factor=0.500000
rprop_delta_min=0.000000
rprop_delta_max=50.000000
rprop_delta_zero=0.100000
cascade_output_stagnation_epochs=12
cascade_candidate_change_fraction=0.010000
cascade_candidate_stagnation_epochs=12
cascade_max_out_epochs=150
cascade_min_out_epochs=50
cascade_max_cand_epochs=150
cascade_min_cand_epochs=50
cascade_num_candidate_groups=2
bit_fail_limit=3.49999994039535520000e-001
cascade_candidate_limit=1.00000000000000000000e+003
cascade_weight_multiplier=4.00000005960464480000e-001
cascade_activation_functions_count=10
cascade_activation_functions=3 5 7 8 10 11 14 15 16 17 
cascade_activation_steepnesses_count=4
cascade_activation_steepnesses=2.50000000000000000000e-001 5.00000000000000000000e-001 7.50000000000000000000e-001 1.00000000000000000000e+000 
layer_sizes=17 1 1 1 1 1 1 1 1 1 1 4 
scale_included=0
neurons (num_inputs, activation_function, activation_steepness)=(0, 0, 0.00000000000000000000e+000) (0, 0, 0.00000000000000000000e+000) (0, 0, 0.00000000000000000000e+000) (0, 0, 0.00000000000000000000e+000) (0, 0, 0.00000000000000000000e+000) (0, 0, 0.00000000000000000000e+000) (0, 0, 0.00000000000000000000e+000) (0, 0, 0.00000000000000000000e+000) (0, 0, 0.00000000000000000000e+000) (0, 0, 0.00000000000000000000e+000) (0, 0, 0.00000000000000000000e+000) (0, 0, 0.00000000000000000000e+000) (0, 0, 0.00000000000000000000e+000) (0, 0, 0.00000000000000000000e+000) (0, 0, 0.00000000000000000000e+000) (0, 0, 0.00000000000000000000e+000) (0, 0, 0.00000000000000000000e+000) (17, 14, 7.50000000000000000000e-001) (18, 14, 1.00000000000000000000e+000) (19, 15, 7.50000000000000000000e-001) (20, 14, 1.00000000000000000000e+000) (21, 15, 7.50000000000000000000e-001) (22, 14, 7.50000000000000000000e-001) (23, 15, 1.00000000000000000000e+000) (24, 14, 7.50000000000000000000e-001) (25, 15, 7.50000000000000000000e-001) (26, 15, 2.50000000000000000000e-001) (27, 6, 5.00000000000000000000e-001) (27, 6, 5.00000000000000000000e-001) (27, 6, 5.00000000000000000000e-001) (27, 6, 5.00000000000000000000e-001) 
connections (connected_to_neuron, weight)=(0, 5.36761379241943360000e+000) (1, -4.39431858062744140000e+000) (2, -2.16885375976562500000e+001) (3, 9.34986591339111330000e+000) (4, -1.63905944824218750000e+001) (5, -6.29756784439086910000e+000) (6, 2.90712070465087890000e+000) (7, 7.70235443115234370000e+000) (8, 1.09669961929321290000e+001) (9, 2.84754419326782230000e+000) (10, 1.09800300598144530000e+001) (11, -8.45558261871337890000e+000) (12, 1.78657746315002440000e+000) (13, 3.78756546974182130000e+000) (14, -5.78705787658691410000e+000) (15, 1.66957706212997440000e-001) (16, -8.00725102424621580000e-001) (0, 8.43096828460693360000e+000) (1, -7.66560745239257810000e+000) (2, 7.28728914260864260000e+000) (3, 3.41440558433532710000e+000) (4, 3.27666735649108890000e+000) (5, 1.52720952033996580000e+000) (6, 3.71024727821350100000e+000) (7, -4.05042552947998050000e+000) (8, -1.85937309265136720000e+001) (9, 4.77132225036621090000e+000) (10, -2.77234292030334470000e+000) (11, 3.64411616325378420000e+000) (12, 5.82800912857055660000e+000) (13, -2.22548770904541020000e+000) (14, 5.80898809432983400000e+000) (15, -3.26859569549560550000e+000) (16, 4.85374689102172850000e+000) (17, 1.63605916500091550000e+000) (0, 7.79884397983551030000e-001) (1, 6.82727766036987300000e+000) (2, -2.19816970825195310000e+000) (3, -2.44522404670715330000e+000) (4, 1.05589523315429690000e+001) (5, -8.16869926452636720000e+000) (6, -1.30442166328430180000e+000) (7, 6.17596101760864260000e+000) (8, -3.31447267532348630000e+000) (9, 9.58090496063232420000e+000) (10, 4.88198614120483400000e+000) (11, 9.22269403934478760000e-001) (12, 1.34999532699584960000e+001) (13, -4.30547237396240230000e+000) (14, 7.25057411193847660000e+000) (15, -1.87735819816589360000e+000) (16, 9.64186072349548340000e-001) (17, 2.95650863647460940000e+000) (18, 2.58365797996521000000e+000) (0, 1.91918635368347170000e+000) (1, 1.56701350212097170000e+000) (2, -8.70007097721099850000e-001) (3, -6.28891658782958980000e+000) (4, -2.90794110298156740000e+000) (5, 7.55970621109008790000e+000) (6, -8.79136264324188230000e-001) (7, -1.17131161689758300000e+000) (8, -2.92440319061279300000e+000) (9, -6.15887546539306640000e+000) (10, 3.68144798278808590000e+000) (11, 1.25364959239959720000e+000) (12, 7.52185249328613280000e+000) (13, -5.92099094390869140000e+000) (14, 5.53390741348266600000e+000) (15, -7.98891127109527590000e-001) (16, 8.92070531845092770000e-001) (17, 1.06773054599761960000e+000) (18, 9.93837118148803710000e-001) (19, 1.13103568553924560000e+000) (0, -2.68486952781677250000e+000) (1, -1.30991315841674800000e+001) (2, 9.94913041591644290000e-001) (3, 6.88104629516601560000e+000) (4, -4.65649753808975220000e-001) (5, 9.98337650299072270000e+000) (6, 1.32963705062866210000e+000) (7, -5.89779806137084960000e+000) (8, -8.53754234313964840000e+000) (9, 3.46114706993103030000e+000) (10, 7.00740242004394530000e+000) (11, -7.77783012390136720000e+000) (12, 7.54636383056640620000e+000) (13, 8.74643802642822270000e+000) (14, -1.34238803386688230000e+000) (15, -5.70974540710449220000e+000) (16, 1.62857496738433840000e+000) (17, 1.85859048366546630000e+000) (18, 8.51270675659179690000e-001) (19, 1.51642274856567380000e+000) (20, -2.04952931404113770000e+000) (0, 4.33966112136840820000e+000) (1, 2.38675594329833980000e+000) (2, 1.43997108936309810000e+000) (3, 9.10501897335052490000e-001) (4, 8.12413215637207030000e+000) (5, -8.98441123962402340000e+000) (6, 6.12007236480712890000e+000) (7, 6.27350664138793950000e+000) (8, 5.83860337734222410000e-001) (9, 2.19468688964843750000e+000) (10, -7.02381610870361330000e+000) (11, 4.49978065490722660000e+000) (12, -6.82917237281799320000e-001) (13, 8.40149879455566410000e+000) (14, 2.88586759567260740000e+000) (15, -1.37681210041046140000e+000) (16, -5.96523582935333250000e-001) (17, 1.12987315654754640000e+000) (18, 3.15034103393554690000e+000) (19, 1.37462902069091800000e+000) (20, 2.39269042015075680000e+000) (21, -1.94012093544006350000e+000) (0, -1.71162083745002750000e-001) (1, -5.75604581832885740000e+000) (2, 2.67427158355712890000e+000) (3, -6.73075497150421140000e-001) (4, 1.27347908020019530000e+001) (5, -2.20140576362609860000e+000) (6, 1.55348789691925050000e+000) (7, -4.92840647697448730000e-001) (8, 2.49479079246521000000e+000) (9, 1.34487667083740230000e+001) (10, 1.11992859840393070000e+000) (11, -2.42419743537902830000e+000) (12, -4.98750686645507810000e+000) (13, 2.67982435226440430000e+000) (14, -7.69066691398620610000e-001) (15, -9.51020240783691410000e-001) (16, 8.71395349502563480000e-001) (17, -3.02944153547286990000e-001) (18, 5.35441935062408450000e-001) (19, 1.78896820545196530000e+000) (20, 1.61662089824676510000e+000) (21, 1.44389033317565920000e+000) (22, 4.58339959383010860000e-001) (0, 1.48759727478027340000e+001) (1, -4.92584991455078120000e+000) (2, -3.99284315109252930000e+000) (3, -1.16170930862426760000e+000) (4, 2.21210622787475590000e+000) (5, 7.15221452713012700000e+000) (6, -5.68625926971435550000e+000) (7, 6.13698482513427730000e+000) (8, -3.86479163169860840000e+000) (9, -4.86214733123779300000e+000) (10, 2.61641621589660640000e+000) (11, 2.31467819213867190000e+000) (12, -1.33543710708618160000e+001) (13, -8.80802512168884280000e-001) (14, 6.48067760467529300000e+000) (15, 7.73803997039794920000e+000) (16, -1.98883771896362300000e+000) (17, 2.84513783454895020000e+000) (18, -7.30404198169708250000e-001) (19, -3.09309840202331540000e+000) (20, 3.39077502489089970000e-001) (21, 2.28058433532714840000e+000) (22, 1.66900575160980220000e+000) (23, 1.40905296802520750000e+000) (0, 4.21893167495727540000e+000) (1, 9.50017261505126950000e+000) (2, -1.07139214873313900000e-001) (3, -2.06891226768493650000e+000) (4, -1.25858712196350100000e+000) (5, 1.43863534927368160000e+000) (6, 4.54762268066406250000e+000) (7, -3.28857600688934330000e-001) (8, -1.58077287673950200000e+001) (9, -1.64665114879608150000e+000) (10, -4.66987705230712890000e+000) (11, 7.35370731353759770000e+000) (12, -1.20847978591918950000e+001) (13, 1.73791289329528810000e+000) (14, 7.83513069152832030000e+000) (15, -2.59283709526062010000e+000) (16, 2.25210332870483400000e+000) (17, 2.10449051856994630000e+000) (18, 1.09856832027435300000e+000) (19, 1.95812416076660160000e+000) (20, 2.23014330863952640000e+000) (21, 1.11637151241302490000e+000) (22, -7.38862633705139160000e-001) (23, -3.48752111196517940000e-001) (24, 2.75537538528442380000e+000) (0, 1.21807265281677250000e+000) (1, 1.37145280838012700000e+000) (2, 1.32284011840820310000e+001) (3, 2.92422842979431150000e+000) (4, 4.85472488403320310000e+000) (5, -6.56749296188354490000e+000) (6, 7.89003276824951170000e+000) (7, 1.68546783924102780000e+000) (8, -3.27706146240234380000e+001) (9, 9.64762878417968750000e+000) (10, 2.78584003448486330000e+000) (11, -1.58390579223632810000e+001) (12, -1.83385658264160160000e+001) (13, 2.28276004791259770000e+001) (14, 1.21335859298706050000e+001) (15, -8.12819004058837890000e-001) (16, -4.84298706054687500000e+000) (17, -8.68067622184753420000e-001) (18, -3.69584262371063230000e-001) (19, 6.68427753448486330000e+000) (20, 1.57148540019989010000e+000) (21, 3.08999180793762210000e+000) (22, 1.81618642807006840000e+000) (23, -3.50786471366882320000e+000) (24, 2.76843428611755370000e+000) (25, 6.20035934448242190000e+000) (0, -8.39535668492317200000e-002) (1, 6.36099725961685180000e-002) (2, 2.38648146390914920000e-001) (3, -1.20403207838535310000e-001) (4, 4.13790047168731690000e-002) (5, 6.39988034963607790000e-002) (6, -1.02806024253368380000e-001) (7, 2.35083252191543580000e-002) (8, -2.58330494165420530000e-001) (9, 1.09902329742908480000e-001) (10, 6.69713690876960750000e-002) (11, -1.07293106615543370000e-001) (12, -2.68862843513488770000e-001) (13, 1.79168969392776490000e-001) (14, 2.50074654817581180000e-001) (15, -2.62708961963653560000e-001) (16, 3.14908772706985470000e-002) (17, 5.80567792057991030000e-002) (18, 2.14399024844169620000e-002) (19, 1.58299617469310760000e-002) (20, -2.02091950923204420000e-002) (21, 3.63302081823349000000e-002) (22, 3.15930172801017760000e-002) (23, 4.47623953223228450000e-002) (24, 2.32648774981498720000e-002) (25, 4.67453747987747190000e-002) (26, 1.33056910708546640000e-002) (0, 8.55088233947753910000e-002) (1, 3.13019126653671260000e-001) (2, -2.73950517177581790000e-001) (3, 5.64393177628517150000e-002) (4, -5.87526038289070130000e-002) (5, 2.39395856857299800000e-001) (6, -4.11677509546279910000e-001) (7, 1.10846705734729770000e-001) (8, -5.43123364448547360000e-001) (9, 3.19391340017318730000e-001) (10, 8.89171212911605830000e-002) (11, -1.34175822138786320000e-001) (12, -5.81043541431427000000e-001) (13, 4.88144755363464360000e-001) (14, 3.64867299795150760000e-001) (15, -4.43686872720718380000e-001) (16, 1.07019007205963130000e-001) (17, 1.64313301444053650000e-001) (18, 8.71788784861564640000e-002) (19, 8.84125381708145140000e-002) (20, -1.18975870311260220000e-001) (21, 1.23148143291473390000e-001) (22, 1.03092610836029050000e-001) (23, 1.14142969250679020000e-001) (24, 8.13061967492103580000e-002) (25, 1.14060178399086000000e-001) (26, 9.37817990779876710000e-002) (0, 2.00477346777915950000e-001) (1, -6.89449608325958250000e-001) (2, 2.48477891087532040000e-001) (3, 2.48332887887954710000e-001) (4, -7.82086923718452450000e-002) (5, 6.08860403299331670000e-002) (6, -7.53262862563133240000e-002) (7, 4.75828312337398530000e-002) (8, -6.08086526393890380000e-001) (9, 1.40275746583938600000e-001) (10, 3.35111260414123540000e-001) (11, -1.95246621966362000000e-001) (12, -2.68784850835800170000e-001) (13, 1.32258221507072450000e-001) (14, 4.01879936456680300000e-001) (15, -3.72536897659301760000e-001) (16, -1.21832720935344700000e-001) (17, 1.63258939981460570000e-001) (18, 1.12669862806797030000e-001) (19, 1.16997085511684420000e-001) (20, -1.34565040469169620000e-001) (21, 1.16100080311298370000e-001) (22, 1.07655003666877750000e-001) (23, 1.22184529900550840000e-001) (24, 9.25020128488540650000e-002) (25, 8.55309739708900450000e-002) (26, 8.18932428956031800000e-002) (0, 4.49644744396209720000e-001) (1, -4.77404654026031490000e-001) (2, -3.16964447498321530000e-001) (3, 3.36032420396804810000e-001) (4, 7.99434930086135860000e-002) (5, 3.74026112258434300000e-002) (6, -5.12078821659088130000e-001) (7, 2.61827796697616580000e-001) (8, -8.33930969238281250000e-001) (9, 3.02856415510177610000e-001) (10, 2.37258166074752810000e-001) (11, -2.13253617286682130000e-001) (12, -5.96031069755554200000e-001) (13, 4.02986079454422000000e-001) (14, 5.37581384181976320000e-001) (15, -5.88379383087158200000e-001) (16, -6.58865720033645630000e-002) (17, 2.55296528339385990000e-001) (18, 1.61737531423568730000e-001) (19, 2.04672649502754210000e-001) (20, -2.16723084449768070000e-001) (21, 2.14225947856903080000e-001) (22, 1.62528812885284420000e-001) (23, 1.85908928513526920000e-001) (24, 1.59920215606689450000e-001) (25, 1.52956470847129820000e-001) (26, 1.42074048519134520000e-001) 
